2919 100
security -0.07252028 0.40261737 -0.112883575 0.1901721 0.21409634 -0.6536801 0.5253254 0.5746171 -0.50055623 -0.5243358 -0.51797366 -0.4929727 0.022333499 -0.037897263 0.1258756 -0.5561498 0.045187693 -0.35956606 -0.23213132 -0.83965355 0.51764375 0.09288364 0.37146652 -0.39859992 -0.21111074 -0.08638733 -0.5533181 -0.17596902 -0.3220454 0.28399733 0.51538646 0.05411438 0.16681127 -0.32180083 -0.11863476 0.9039407 0.1544358 -0.12964153 -0.13735746 -0.36289826 -0.08513993 -0.36740977 -0.1629449 0.36960804 0.18474388 -0.3856464 -0.13671054 -0.025576042 0.25700092 0.3873313 0.013043089 -0.15367848 0.37772113 -0.3512978 -0.1924699 0.23456934 0.22200845 -0.048069302 -0.37074205 0.513698 0.23372237 -0.05806123 -0.047110017 -0.16357571 -0.597145 -0.02889917 -0.074366294 0.5581001 -0.08550349 0.24279669 -0.013149533 0.107614 0.40472868 -0.05025824 0.3829015 0.04710127 0.14216688 0.007736519 -0.24479556 0.29566094 -0.23744647 0.010979956 -0.16798791 0.2290128 -0.07801651 -0.10557555 0.049835265 0.23212913 0.6669792 0.36576173 0.7319574 0.29301092 0.18159032 0.095257506 0.5377078 0.42027715 0.15580109 -0.51967394 0.30231762 -0.27906004
system -0.17737079 0.3606762 -0.18351199 -0.10184797 0.1701443 -0.7113341 0.4009344 0.57026684 -0.48315305 -0.6093832 -0.4943721 -0.55299276 -0.02334499 0.119295515 0.29738322 -0.48950344 -0.016761053 -0.3197617 -0.104166426 -0.6876612 0.40700996 -0.056353413 0.1717459 -0.32005754 -0.08747884 -0.17028639 -0.42938915 -0.3870905 -0.19218035 0.12161313 0.6674756 0.06306045 0.05927586 -0.20427595 0.027925486 0.81555057 0.1769731 0.25456962 0.068325624 -0.45883575 0.021124003 -0.4840754 -0.21002658 0.12745228 0.14436802 -0.27184027 -0.2170647 0.07537836 0.24342827 0.4338892 0.11795631 -0.26053855 0.24438232 -0.33473447 0.028055236 0.40714914 0.29907328 0.058400977 -0.13545132 0.4615593 0.087222345 0.120350845 0.08006138 -0.0043932227 -0.35825917 0.13094102 0.11889623 0.4558726 0.03715368 0.2990139 -0.043308184 0.1861853 0.50588536 0.11723815 0.49429145 0.041692007 -0.044691604 -0.17002183 -0.34836978 0.270066 -0.083919935 -0.25617993 -0.085343495 0.20135601 0.12874179 -0.06425324 0.112648785 0.16097756 0.6479402 0.29778928 0.60000926 0.32583624 0.46440965 0.021292914 0.33999187 0.46884832 0.3575718 -0.5465306 0.14117333 -0.37037748
use -0.1763286 0.3966589 -0.23113705 -0.20455194 0.18006833 -0.6477939 0.3215045 0.53479177 -0.34164283 -0.60651225 -0.5967809 -0.37823746 -0.07507519 0.10306293 0.28635418 -0.47688642 -0.05043733 -0.36503643 -0.03162523 -0.6734468 0.36815125 -0.014997753 0.2010556 -0.20112415 0.027812991 -0.10836128 -0.39344764 -0.4424015 -0.10196156 0.23610672 0.6243084 0.12008709 -0.072905086 -0.11664083 0.0019881274 0.74800175 0.043381315 0.2438472 -0.008848906 -0.5564504 -0.17753512 -0.4845989 -0.00094659376 0.04673195 0.21065098 -0.36900243 -0.30253336 0.12166827 0.13729309 0.43130365 0.11285056 -0.22459222 0.1874028 -0.41892412 -0.07857861 0.25090733 0.29261836 -0.034837604 -0.17724162 0.34134355 0.18670504 0.21915254 0.09382667 0.14943594 -0.32492435 0.06558315 0.26507726 0.50485003 -0.04968037 0.393321 -0.014820252 0.15946285 0.41114357 0.038426943 0.42321163 0.1687794 -0.12480294 0.004355797 -0.25594032 0.326246 0.046000645 -0.34014392 -0.07667116 0.21669893 0.3451366 -0.0372955 0.08912361 0.3857981 0.6041484 0.27488837 0.4921813 0.3330065 0.46134877 0.023048868 0.43360594 0.39270636 0.40888724 -0.48065645 0.21643595 -0.32204482
software -0.23080462 0.5139225 -0.28075296 -0.15866616 0.19140396 -0.76348126 0.2888754 0.49273044 -0.11302526 -0.56205565 -0.653758 -0.3591212 0.008283518 -0.0032350277 0.51930714 -0.5067181 0.067869104 -0.44165364 -0.087894574 -0.47872788 0.5271509 0.06534561 0.2546143 -0.15246892 0.07261173 0.06700283 -0.5832175 -0.41249004 -0.12835407 0.3512497 0.74368274 0.10492804 0.11437585 -0.1178836 -0.083896965 0.7770732 0.16555595 0.290947 -0.07282081 -0.3057186 -0.22957031 -0.5326342 0.17722966 0.012006076 0.20282489 -0.40263322 -0.2605474 0.1868379 0.08003411 0.33216146 0.013637339 -0.15212362 0.17415477 -0.4517346 -0.077718705 0.25790313 0.34297132 0.016042333 -0.12584844 0.46533474 0.21663721 0.28346997 0.05446746 0.24883585 -0.14402075 0.10101767 0.20621063 0.5027502 0.08514156 0.35745335 -0.030634059 0.027888872 0.3721078 0.113584034 0.40533784 0.07915297 -0.16453655 0.19505316 -0.21742058 0.35941634 0.10963701 -0.31099263 0.026757626 0.16211563 0.37733555 -0.062261358 0.19328746 0.39543658 0.49123108 0.11399774 0.5333893 0.3363305 0.3185465 -0.005845112 0.41520175 0.23077099 0.3027859 -0.33022308 0.15019731 -0.30257514
attack -0.18840146 0.38753816 -0.24506983 -0.31750163 0.19645245 -0.6249308 0.37297896 0.59852356 -0.36310166 -0.59756184 -0.5597718 -0.26523608 -0.22302175 0.11175093 0.2556972 -0.4247751 -0.15902512 -0.35771596 0.033743802 -0.71902275 0.33527315 -0.027693648 0.25076547 -0.17284918 0.029392865 -0.15143749 -0.30567494 -0.43555427 -0.038944814 0.14410576 0.555444 0.08084541 -0.11297959 -0.08420331 0.10608088 0.67117685 -0.018581226 0.23548514 0.01939916 -0.6797341 -0.13193065 -0.47666186 -0.11387081 -0.030584686 0.25902256 -0.41242495 -0.34528413 0.18484487 0.1305123 0.42627892 0.21919744 -0.25153074 0.25542352 -0.4185154 -0.07611766 0.22482206 0.24301596 -0.007944667 -0.1853287 0.21688804 0.24252713 0.16287121 0.14690337 0.18922006 -0.30979612 0.018843556 0.4320363 0.528426 -0.15207808 0.46228394 -0.065231055 0.17195097 0.3866846 -0.020953536 0.41777354 0.240234 -0.24648708 -0.012715628 -0.2720096 0.2893698 0.006237974 -0.3867186 -0.09059531 0.23583186 0.42906904 -0.0055727568 0.16526312 0.3917033 0.557547 0.25634283 0.43767315 0.2997522 0.5707001 -0.09456389 0.4305123 0.46988702 0.56503654 -0.433072 0.27476364 -0.39587647
computer -0.22228996 0.338239 -0.2477703 -0.26264796 0.094383 -0.64184463 0.38788092 0.52143013 -0.38770467 -0.55281997 -0.5048067 -0.39893556 -0.07555364 0.060410433 0.35034928 -0.45847553 -0.04192455 -0.32306892 -0.06873792 -0.49595526 0.31384337 -0.06856193 0.15910809 -0.21772328 -0.028739477 -0.101625346 -0.39520827 -0.48057714 -0.13014337 0.15175825 0.65491486 0.069739774 -0.017721577 -0.16794167 0.0650501 0.7115854 0.12276386 0.32140985 0.061757747 -0.5038455 0.048558533 -0.47007725 -0.05890279 0.015916213 0.11820648 -0.37673923 -0.3157908 0.15804783 0.19683616 0.31033534 0.11205639 -0.26923758 0.26721582 -0.27297375 -0.052170794 0.3543247 0.3281979 -0.042205848 -0.09779876 0.29451096 0.19485092 0.20366807 0.06727338 0.08727647 -0.1437837 0.14689757 0.2617073 0.48739937 0.013687568 0.2133722 0.05441592 0.17603809 0.41715744 0.059149522 0.43975464 0.17846493 -0.10937264 -0.008522602 -0.248014 0.24755888 0.0716023 -0.27004808 0.006528019 0.1931221 0.2681507 -0.010245846 0.17427985 0.29121664 0.5040912 0.24345335 0.53512746 0.4142542 0.43639082 -0.09266509 0.31752792 0.39550874 0.31209904 -0.5148958 0.21204624 -0.2756472
user -0.17073935 0.33216012 -0.24743502 -0.26179338 0.11290235 -0.6692632 0.3132438 0.574491 -0.3639532 -0.62168396 -0.5170932 -0.3728983 -0.115525074 0.13332532 0.2762145 -0.42501503 -0.05269927 -0.37973532 0.040803757 -0.63182527 0.31390786 -0.02701217 0.15792853 -0.16944435 0.04090626 -0.13706447 -0.39033803 -0.5261092 -0.036763877 0.16647556 0.64295346 0.15123066 -0.0717053 -0.059115898 0.06224676 0.7609664 0.023363896 0.27749377 0.023950376 -0.6220958 -0.101606056 -0.53419507 -0.048804283 -0.0009778468 0.17839922 -0.29889673 -0.37286842 0.12195363 0.14292537 0.41248253 0.13777445 -0.26705346 0.16035873 -0.38960928 -0.016744858 0.30731493 0.30387715 -0.050347388 -0.09134368 0.32893088 0.110658586 0.2223753 0.114977516 0.14423575 -0.28692994 0.1154693 0.25502124 0.4522306 -0.066053204 0.33788782 0.014200141 0.19580168 0.41400835 0.060278688 0.46703482 0.11123975 -0.14294615 -0.101952165 -0.29397166 0.34035924 0.054260608 -0.34691083 -0.045619234 0.24728163 0.37272736 -0.011250953 0.13408642 0.35972703 0.584371 0.2591195 0.4711346 0.34371912 0.5353279 0.018410865 0.38031533 0.40405855 0.43483755 -0.528092 0.20193562 -0.32354522
information -0.08922672 0.3803714 -0.09407408 0.1795293 0.19484065 -0.6355795 0.5172978 0.537792 -0.53779083 -0.54329383 -0.5307155 -0.5133001 0.03999327 -0.051740333 0.11173477 -0.54097825 0.048077542 -0.38159594 -0.19527808 -0.8703249 0.46444815 0.043424953 0.33625364 -0.40140104 -0.27288327 -0.05346433 -0.5519761 -0.22300662 -0.32037407 0.29383746 0.5337592 0.09279452 0.11124959 -0.28147516 -0.040184226 0.8774234 0.08493228 -0.09788171 -0.1537644 -0.42629924 -0.02694089 -0.44753358 -0.14715005 0.39344898 0.18469502 -0.44602036 -0.14170173 -0.057774786 0.27575853 0.41627228 0.004581167 -0.21574125 0.39273924 -0.31469905 -0.22269943 0.271439 0.23411946 -0.07474615 -0.3826585 0.47880903 0.24505512 -0.027945416 -0.047909882 -0.12488513 -0.5995396 -0.0003240825 -0.052748352 0.620398 -0.08385485 0.21284984 0.03742506 0.11908579 0.43414813 -0.07377608 0.37174493 0.09612002 0.12974955 0.014937892 -0.23322625 0.26198262 -0.21990654 0.0058862916 -0.17241864 0.2487338 -0.05683998 -0.095389426 0.025201023 0.34742045 0.7195138 0.33615962 0.73022383 0.32885432 0.16979627 0.13556202 0.5371484 0.4109431 0.23129138 -0.59394765 0.29933193 -0.252275
application -0.1378496 0.40134135 -0.23549691 -0.1359433 0.15939438 -0.63567567 0.38309348 0.592213 -0.35733995 -0.60641396 -0.5154239 -0.39431357 -0.12993123 0.07882168 0.29902467 -0.43046921 -0.06034719 -0.3845692 -0.07017526 -0.63300866 0.37115747 0.09835804 0.2447162 -0.22053514 0.0031600082 -0.1430201 -0.40106264 -0.39999232 -0.05652584 0.17479616 0.58503485 -0.0011935531 0.041787934 -0.082674146 -0.09779895 0.83145684 0.06240232 0.23702006 0.031043002 -0.47685438 -0.14617662 -0.44180587 -0.07873936 0.06937475 0.1782613 -0.24763529 -0.30578873 0.12617266 0.109493375 0.3636698 0.1072111 -0.13286945 0.23276319 -0.47356278 -0.01641939 0.29649 0.23193392 0.029036364 -0.12553622 0.34351188 0.07662073 0.112159915 0.10836771 0.15471902 -0.35653034 0.028167365 0.12099891 0.4694072 -0.06552521 0.3509425 -0.078990795 0.13586065 0.40775502 0.09295246 0.3993474 0.041508786 -0.13542339 -0.124304436 -0.27102154 0.33425725 -0.036489177 -0.30183667 -0.0685842 0.22278903 0.3462241 -0.032709807 0.16293004 0.22270186 0.5379985 0.2756162 0.4598157 0.25790557 0.49596018 0.029433772 0.42879045 0.42958996 0.314878 -0.38953072 0.25920662 -0.41375002
code -0.22476938 0.4178475 -0.29562408 -0.22228684 0.16248198 -0.707132 0.25503653 0.57632405 -0.23330697 -0.65793353 -0.6526017 -0.30951178 -0.1033879 0.14178513 0.26599795 -0.42338306 -0.05191427 -0.46058923 0.04013244 -0.6659176 0.37360474 0.04435839 0.2288571 -0.18031766 0.06435999 -0.10723565 -0.51825655 -0.44191507 -0.032130107 0.28704908 0.6688173 0.1588371 -0.08453963 -0.066238254 -0.09785441 0.84743124 0.013036654 0.27461874 -0.04407512 -0.46615198 -0.24329443 -0.5037498 0.04236368 0.014975378 0.22456858 -0.34974647 -0.34042174 0.15097237 0.13863719 0.45029244 0.14987661 -0.13586901 0.2106791 -0.46534586 -0.061794266 0.21581814 0.2987654 -0.022280937 -0.13727267 0.42649218 0.22776704 0.25666603 0.11265378 0.19440407 -0.3165794 -0.014075894 0.21928099 0.40705281 -0.04433405 0.39377433 -0.027920885 0.08334418 0.4149017 0.018331403 0.4316809 0.098366626 -0.20424365 -0.024487777 -0.21166922 0.3677289 0.037061714 -0.32445616 -0.085276246 0.23163658 0.47199854 -0.1038823 0.077933095 0.49382815 0.6260959 0.335812 0.5039309 0.29727933 0.4364708 0.075585805 0.5757909 0.37038603 0.33983123 -0.44215077 0.21912888 -0.36322936
access -0.070920326 0.21241015 -0.1321367 -0.1730941 0.06370119 -0.60727835 0.30785543 0.54914033 -0.51380265 -0.61363655 -0.34932095 -0.5216417 0.004483548 0.08339738 0.17088254 -0.3592165 -0.050101392 -0.3129499 -0.029687276 -0.71173257 0.26435012 -0.014163787 0.11181102 -0.22507918 -0.11534339 -0.17036605 -0.24132974 -0.44893545 -0.1546263 0.064750254 0.49261197 0.1336567 0.044773534 -0.1257844 0.15159896 0.7376735 0.100746065 0.164672 -0.008097247 -0.5794059 -0.03046774 -0.4462794 -0.27075487 0.17699943 0.09010292 -0.26012394 -0.2934038 -0.002487927 0.17961656 0.4210454 0.07919759 -0.28502443 0.14172244 -0.294163 0.061897658 0.33965614 0.20244142 -0.032481648 -0.0720876 0.3289673 -0.015033913 0.09278493 0.15522304 -0.0024575698 -0.45356387 0.18507746 0.021228058 0.44366315 -0.038187377 0.21677284 0.0253184 0.3977843 0.4097957 0.116383314 0.4534016 0.13346341 0.039456636 -0.30891606 -0.3658754 0.28420454 -0.023144031 -0.20595005 -0.07228817 0.23975433 0.0031329114 0.02980588 0.032330014 0.24124496 0.631121 0.28536424 0.49457887 0.37078446 0.52274907 0.13653788 0.22336657 0.44483924 0.40546373 -0.5905457 0.17711669 -0.42995554
datum -0.15834728 0.39862978 -0.2187813 -0.17377986 0.15939732 -0.65462685 0.32862556 0.536166 -0.3879904 -0.61356103 -0.51449734 -0.35666978 -0.07886142 0.10437542 0.23435646 -0.4516903 -0.07690924 -0.3895326 -0.004408235 -0.70445764 0.3366513 -0.0151096005 0.20078598 -0.23516858 -0.06380742 -0.12341744 -0.42798775 -0.41950297 -0.09341831 0.21829166 0.56417465 0.11226436 -0.09652436 -0.114835344 0.044856276 0.7825486 0.050726403 0.19393219 -0.03897918 -0.5660085 -0.14482802 -0.47260323 -0.041914765 0.10376671 0.19537099 -0.32235256 -0.30440253 0.09899012 0.154037 0.44865233 0.12593903 -0.2592544 0.24397177 -0.37849814 -0.10268329 0.27557912 0.28810573 -0.035331797 -0.18773279 0.3476505 0.17678456 0.18699072 0.056608807 0.08036208 -0.38248163 0.062781654 0.22432211 0.5257763 -0.08154557 0.36497828 -0.025062185 0.14567369 0.40895647 0.008466444 0.4294674 0.14354143 -0.12111279 -0.029464068 -0.26689366 0.315241 -0.008324243 -0.2512723 -0.11388663 0.22873037 0.30115908 -0.024547707 0.0585703 0.37948218 0.64084166 0.30216822 0.5139583 0.32708216 0.3883794 0.06954398 0.44898885 0.37275827 0.38184348 -0.5445101 0.21542552 -0.31244078
vulnerability -0.16159695 0.35819474 -0.15170567 -0.1642051 0.19620436 -0.591099 0.37404808 0.61696416 -0.31683934 -0.5763363 -0.5838153 -0.34219658 -0.168077 0.097418115 0.17480074 -0.4952352 -0.07241956 -0.34027022 -0.03732055 -0.68368095 0.38752738 0.039047156 0.26927936 -0.17120181 0.0104270745 -0.14869809 -0.4010911 -0.3351113 -0.06972433 0.23589128 0.50835466 0.06931775 -0.034870826 -0.1553971 -0.073151134 0.72076297 0.01705215 0.15531164 -0.020217912 -0.49692234 -0.14639197 -0.40112922 -0.07334137 0.03992479 0.16607626 -0.35594246 -0.25154984 0.10870191 0.14804581 0.38202724 0.16900426 -0.17235762 0.22501524 -0.43227068 -0.07256724 0.2639419 0.23582458 0.0047926484 -0.17787516 0.33599827 0.14899427 0.09079913 0.13024001 0.09948834 -0.37846407 -0.017611424 0.27341565 0.43083754 -0.1373485 0.35419986 0.016006175 0.16417669 0.40060073 -0.009597895 0.387128 0.12814777 -0.118470535 -0.054015003 -0.3118425 0.31849632 -0.11720028 -0.25101164 -0.107946165 0.25039178 0.2722332 -0.044827823 0.14337893 0.29068306 0.54781127 0.31832314 0.5519174 0.23366985 0.48815295 -0.022506855 0.44176987 0.43450058 0.40513194 -0.41947368 0.26557174 -0.36687186
- -0.56492627 0.66499144 -0.5490393 -0.50011134 -0.006810771 -0.9363363 0.083129734 0.3799285 -0.042487938 -0.6314041 -0.93153137 -0.09903218 -0.27222463 -0.0795455 1.0263501 -0.4145832 0.24027783 -0.46103993 0.04370803 -0.27677292 0.5284772 -0.0029759603 0.19868338 0.096952796 0.4972976 0.27446637 -0.83559924 -0.9325736 -0.014012833 0.5448227 1.079589 0.24506882 0.23300134 0.025565397 0.20328721 0.57978743 -0.19642605 0.91938037 0.12933467 -0.5936822 -0.23521344 -0.88915175 0.49288413 -0.23321012 0.061995413 -0.6491228 -0.486747 0.4579842 0.04753063 0.29181933 -0.032044545 -0.23770759 -0.031081807 -0.33673942 0.075979896 0.40854317 0.6428344 -0.13879812 -0.0759432 0.50052506 0.24764417 0.7235027 0.12694272 0.73200524 0.45386267 0.2930654 0.8721332 0.68426573 0.38685262 0.4044018 0.21919124 -0.018429516 0.18360113 0.15107003 0.6058034 0.4701988 -0.37455034 0.47778955 -0.07576093 0.2615165 0.49406236 -0.6018915 0.47179458 0.27942872 0.7649235 0.20480658 0.58050585 0.71964645 0.26929396 -0.2884079 0.57704437 0.5960006 0.6383848 -0.11058596 0.0388963 0.12110134 0.7062477 -0.4033923 0.052867614 -0.0024050246
testing -0.14347234 0.65259737 -0.28449073 -0.09429531 0.3128985 -0.8231828 0.35600963 0.5457228 -0.08583563 -0.67515486 -0.64664656 -0.44029018 -0.041521356 -0.034980997 0.36444223 -0.5385017 0.049663343 -0.48102695 -0.0732175 -0.7840803 0.66144305 0.2025248 0.34136286 -0.23758253 -0.0014102561 0.04627991 -0.6816742 -0.35992146 -0.13429233 0.41777378 0.6605686 0.12232587 0.07608207 -0.20982563 -0.1935493 0.91194177 0.19141337 0.17215358 -0.11650608 -0.38743547 -0.33918968 -0.55867714 0.17818743 0.1865012 0.26693237 -0.40498546 -0.31549937 0.12425466 0.12859538 0.45012906 0.06724306 -0.14436865 0.24128081 -0.6516573 -0.18530464 0.15062287 0.36908117 0.04622519 -0.28824005 0.6238008 0.29597098 0.13378055 0.032027874 0.19042793 -0.41977212 -0.0015748758 0.09507984 0.51257914 -0.064193934 0.43952304 -0.16950658 -0.04437234 0.4473756 0.062097732 0.45037892 -0.0012843221 -0.12570968 0.17505597 -0.2669989 0.51079077 -0.027024012 -0.25525686 -0.045162648 0.13424182 0.38421622 -0.082273275 0.0989861 0.46442965 0.6447928 0.2242851 0.6777709 0.29407114 0.31709373 0.13779795 0.6257838 0.26705915 0.28789356 -0.2884384 0.20159923 -0.37889677
network -0.17807363 0.37967682 -0.261356 -0.20947544 0.15496407 -0.69756466 0.37822112 0.5802846 -0.47653705 -0.60667324 -0.53211063 -0.45890653 -0.096164264 0.12300689 0.28493723 -0.48474237 -0.098758556 -0.3245685 -0.07097648 -0.65433514 0.35053465 -0.044038527 0.15167989 -0.24105233 -0.06614396 -0.17514767 -0.3664941 -0.44978273 -0.15116902 0.09734397 0.58809435 0.05458639 -0.032830518 -0.12694319 0.029698977 0.80100125 0.10081665 0.26703897 0.021127686 -0.5561617 -0.020698644 -0.46898013 -0.13259625 0.080792256 0.17349462 -0.27478966 -0.32419503 0.11606492 0.16604169 0.3962239 0.12802246 -0.28636914 0.2526617 -0.33264577 -0.01921276 0.36240813 0.26797476 -0.0051361555 -0.12448234 0.34696418 0.15577725 0.17877012 0.094941564 0.11263155 -0.2984228 0.08779689 0.23174867 0.52784115 -0.001424837 0.34270924 -0.040454637 0.21095192 0.43982908 0.038026184 0.4916746 0.18255864 -0.11475202 -0.11689527 -0.2961087 0.26088884 0.01648868 -0.31594276 -0.09092568 0.2508578 0.2337349 -0.0012328629 0.16558671 0.25213996 0.60531384 0.2902256 0.4954423 0.3596899 0.49586847 -0.012725228 0.34526706 0.49707073 0.4055752 -0.50494325 0.25594932 -0.3686928
control -0.07434368 0.27929437 -0.112597734 -0.006055906 0.18429723 -0.64918286 0.37172514 0.5596862 -0.4904802 -0.62088424 -0.46940604 -0.58601534 0.0020809767 0.050285447 0.12100438 -0.4376693 -0.047430944 -0.374235 -0.0927135 -0.8682898 0.39859554 0.07444615 0.20229882 -0.2628352 -0.13620262 -0.10523918 -0.3637646 -0.40593246 -0.26348618 0.17105934 0.55504984 0.12469322 0.06530914 -0.2485102 0.060561918 0.86639565 0.12696923 0.029859114 -0.097084336 -0.5575246 -0.086854726 -0.5137935 -0.25327373 0.32101163 0.1754812 -0.33141854 -0.27084607 -0.0524185 0.24765006 0.47583508 0.038719118 -0.30451244 0.2301728 -0.3319913 -0.05173083 0.34075552 0.2286609 -0.08809505 -0.23226549 0.44591653 0.103092775 0.076098084 0.09115994 -0.032479875 -0.5596107 0.1288122 -0.032344583 0.5577777 -0.026886446 0.28116584 0.03580205 0.34822553 0.44124457 0.04599466 0.4786956 0.08000604 0.11506186 -0.19372265 -0.3246749 0.326875 -0.109464936 -0.1850177 -0.13575456 0.21099672 -0.044573437 -0.00182558 -0.008168684 0.29822466 0.6942088 0.28813064 0.64749354 0.4029046 0.43854654 0.19183601 0.33556485 0.47995925 0.3278336 -0.6103626 0.18976916 -0.3769412
virus -0.39634678 0.4398309 -0.40735018 -0.46831232 0.050006535 -0.7866604 0.28793743 0.5197321 -0.21127254 -0.5657341 -0.72723013 -0.31252143 -0.101845965 0.11273185 0.7022245 -0.50620866 0.030679524 -0.4221066 0.031363886 -0.29051495 0.35974383 -0.14141606 0.041162312 -0.08633282 0.22015378 0.011944194 -0.54616046 -0.77506745 -0.042763755 0.26288152 0.88783115 0.12471516 0.0067937155 0.0019149741 0.13927679 0.6231633 0.0035100123 0.753532 0.15948448 -0.5908211 -0.056954842 -0.693601 0.23368336 -0.24312143 0.09505357 -0.47822312 -0.42553324 0.3547068 0.07787469 0.32013974 0.08547398 -0.2528296 0.13879135 -0.29996294 0.12855257 0.40781856 0.49627304 -0.08183891 0.015883183 0.30204383 0.15242983 0.49167418 0.08909448 0.45126575 0.21972428 0.29546368 0.58799946 0.55442333 0.2270593 0.31004053 0.15686308 0.11200102 0.413944 0.12719312 0.5264061 0.2956703 -0.2800333 0.18753062 -0.18606116 0.23138206 0.36032113 -0.4841985 0.21942532 0.23041981 0.65971756 0.08938378 0.3894643 0.48292688 0.39050615 0.04563595 0.4654843 0.4907474 0.6426732 -0.17432901 0.17990422 0.30539793 0.5141196 -0.4539535 0.1454207 -0.21925008
program -0.2500927 0.3997747 -0.31300458 -0.2966563 0.12225542 -0.750465 0.30337825 0.5757269 -0.28854012 -0.62303704 -0.6550891 -0.3563151 -0.09828302 0.12469346 0.45458773 -0.4801237 -0.028136667 -0.40954414 0.025093682 -0.523219 0.38386813 -0.05729831 0.14811516 -0.16550224 0.10041075 -0.07417683 -0.5105695 -0.57015085 -0.041594423 0.24532174 0.7588811 0.12800603 -0.033899624 -0.06634527 0.052214816 0.74230695 0.060169064 0.4414237 0.0630878 -0.56493163 -0.13590308 -0.5931551 0.07955272 -0.059816327 0.15675488 -0.39754733 -0.3788774 0.21327947 0.15260789 0.38490456 0.10352212 -0.24967559 0.17324506 -0.3974312 0.016869837 0.35108864 0.37403706 -0.044136558 -0.059035245 0.3728087 0.16794509 0.3340566 0.10205629 0.25918728 -0.13736129 0.15525787 0.364201 0.5180832 0.041009795 0.3614974 0.047950484 0.118307374 0.42658103 0.0795028 0.49845994 0.15779352 -0.20814829 0.04688723 -0.26089373 0.30175313 0.13774426 -0.38752034 0.019944806 0.25280595 0.48329878 0.002795671 0.20403686 0.42670292 0.5335623 0.19045004 0.5176356 0.38083088 0.5405305 -0.02859554 0.35705337 0.36505058 0.43863007 -0.4852371 0.18787983 -0.3036221
include -0.20104006 0.45536372 -0.2415935 -0.14918046 0.17611684 -0.7155492 0.36861727 0.54354113 -0.31610268 -0.6295583 -0.6265704 -0.3746347 -0.07616509 0.0590791 0.31119856 -0.48984396 -0.019346995 -0.42727098 -0.056811206 -0.69321686 0.42700776 0.023212992 0.23221809 -0.22240041 0.008143866 -0.06018392 -0.5146422 -0.4656867 -0.10990851 0.2927373 0.6647609 0.12006408 -0.005290025 -0.12508479 -0.027784461 0.828554 0.052230123 0.21504374 -0.041343953 -0.5520628 -0.16656645 -0.5348037 0.031220458 0.07810089 0.205278 -0.4096724 -0.297219 0.1252327 0.1454592 0.43170613 0.07758617 -0.23484425 0.2144716 -0.43395415 -0.088233925 0.28520995 0.33606264 -0.025429465 -0.18740371 0.43115684 0.2193903 0.20973168 0.056005448 0.13070303 -0.3299565 0.046990335 0.24800597 0.5181045 -0.03396517 0.39359626 -0.010748528 0.09918469 0.41852865 0.00977108 0.439741 0.14795455 -0.13141625 0.052844796 -0.25934258 0.35682902 0.018273367 -0.28847474 -0.047001924 0.23322648 0.34230193 -0.049815305 0.11521003 0.42447436 0.61011285 0.23751189 0.56781167 0.3430344 0.4038428 0.040623434 0.47075537 0.36639085 0.39087513 -0.47292024 0.23918013 -0.29441288
base -0.1662141 0.4449311 -0.26351386 -0.14369085 0.21670604 -0.7426467 0.35973623 0.5611264 -0.37276557 -0.64523065 -0.6130208 -0.48028466 -0.02978364 0.097487584 0.35740665 -0.54305136 -0.07720269 -0.38661677 -0.09405431 -0.7037526 0.44614998 0.010400306 0.16957322 -0.2040872 -0.0344981 -0.12890531 -0.45753226 -0.4856377 -0.20109995 0.20483766 0.6551851 0.077004336 0.04173613 -0.15633751 0.008079597 0.8324017 0.108459756 0.29368743 -0.00095184764 -0.5338306 -0.12785871 -0.54278326 -0.06987682 0.11990338 0.17131671 -0.3711055 -0.29529387 0.14125718 0.16265485 0.47038823 0.09087339 -0.29503787 0.20950088 -0.4206179 -0.0074307653 0.35137418 0.30671638 -0.012401928 -0.19815555 0.4365417 0.1769254 0.23017757 0.1217944 0.1410215 -0.37021327 0.11767695 0.19625016 0.55967337 0.03317019 0.40652356 -0.046165112 0.18518803 0.44271082 0.05537683 0.52740616 0.16327542 -0.09492862 -0.023700487 -0.32136062 0.3297533 0.040354174 -0.3305287 -0.080189824 0.22547697 0.21672858 0.012988997 0.14738521 0.33159512 0.6310322 0.2733189 0.5698658 0.3746457 0.46320048 0.08304469 0.3761958 0.4338655 0.43194267 -0.48835006 0.18361014 -0.40627566
threat -0.2097924 0.50384164 -0.16201203 0.011510886 0.27433997 -0.7146381 0.47667328 0.5963089 -0.44699472 -0.6008063 -0.6795636 -0.4435625 -0.056332454 0.050330415 0.17816216 -0.6194825 -0.01386254 -0.40061685 -0.12659429 -0.8336673 0.49703714 -0.012410546 0.30463314 -0.27217552 -0.030057846 -0.11661606 -0.52269554 -0.35609454 -0.15437771 0.29558417 0.6308352 0.1390881 -0.025371064 -0.23678777 -0.022600131 0.8294869 0.07654983 0.058383793 -0.08736543 -0.60254014 -0.1181534 -0.5212699 -0.032245543 0.15459913 0.1809812 -0.48625413 -0.23278078 0.09587232 0.19455393 0.4436282 0.14466529 -0.2549599 0.26659977 -0.40494794 -0.19433601 0.26645336 0.2747804 -0.041925464 -0.31502408 0.44002604 0.2909931 0.14073056 0.033800688 -0.009686426 -0.4969857 -0.04677555 0.2802812 0.57812357 -0.121103145 0.41492733 0.037273042 0.14948799 0.45515198 -0.085254885 0.45740086 0.18092512 -0.08535368 0.07672587 -0.2908911 0.37477326 -0.13108248 -0.19853994 -0.09324291 0.25765797 0.17159724 -0.08045874 0.08641318 0.40262464 0.6992427 0.34711954 0.7164726 0.31777486 0.35943505 0.016724087 0.55746996 0.47393307 0.40029472 -0.51369095 0.2878217 -0.30238456
process -0.14919369 0.43038335 -0.19633877 -0.03547258 0.21520351 -0.6971482 0.35912988 0.51058304 -0.3536778 -0.6045893 -0.60314596 -0.44208494 -0.009942817 0.049839877 0.23585492 -0.49011034 -0.030879902 -0.41310745 -0.039413538 -0.7360381 0.45901197 0.041823704 0.25913534 -0.24533542 -0.04126914 -0.066687614 -0.5254488 -0.3436785 -0.13697606 0.284952 0.6328514 0.16248424 -0.009270706 -0.16566233 -0.04339135 0.85605574 0.11149428 0.07479803 -0.092237055 -0.4596946 -0.16155101 -0.5168658 -0.028252376 0.17244308 0.20060615 -0.38685527 -0.23703401 0.078153536 0.16400927 0.41778272 0.10043317 -0.20503877 0.24125472 -0.4283754 -0.12961793 0.25498638 0.26838824 -0.028206157 -0.23533194 0.4755478 0.20813514 0.14640811 0.04232134 0.040440977 -0.4464473 -0.0005098554 0.11718945 0.49201673 -0.07922037 0.39075556 -0.05643021 0.08995258 0.42545065 0.01655966 0.43448135 0.09320479 -0.08278696 0.006058838 -0.2662449 0.39328265 -0.068826325 -0.21401356 -0.08609303 0.20891589 0.2156552 -0.08054329 0.045422405 0.39508715 0.68814427 0.29963386 0.6123877 0.30621454 0.31249005 0.08559672 0.53813773 0.34987393 0.31790242 -0.4713848 0.20785984 -0.29678088
malware -0.3086437 0.40082487 -0.31667554 -0.38782832 0.0842989 -0.7133019 0.26127306 0.5170639 -0.21614386 -0.5651001 -0.64209753 -0.30450532 -0.11048588 0.112217225 0.5537881 -0.4457086 0.00038070133 -0.4051076 0.014888931 -0.38690847 0.3549503 -0.0756438 0.101361156 -0.11530161 0.14972374 -0.0066695674 -0.4534402 -0.6114775 -0.049667463 0.21733344 0.75782996 0.11147162 -0.019267175 -0.035805088 0.08481889 0.61464196 0.062086966 0.539109 0.082333125 -0.5307983 -0.10219533 -0.5664019 0.13116297 -0.18465376 0.13962315 -0.42132476 -0.37229672 0.2739552 0.07837721 0.35104173 0.09999655 -0.26311302 0.14185938 -0.328948 0.044910498 0.36108932 0.3946729 -0.023653554 -0.03791658 0.29429343 0.15520997 0.37657723 0.10491638 0.35314465 0.03517971 0.2123045 0.4588694 0.49074912 0.12131399 0.3691175 0.06314031 0.1382176 0.37119114 0.062673785 0.47363955 0.20498823 -0.23364104 0.102146834 -0.21926549 0.25796297 0.22094502 -0.43944374 0.08316831 0.22666603 0.50923234 0.039161332 0.26580238 0.4200612 0.40664923 0.113843076 0.43899593 0.39708447 0.5493689 -0.111743696 0.22561161 0.33289808 0.48244253 -0.42301413 0.15322533 -0.25396463
example -0.19870622 0.37723923 -0.23666519 -0.2355487 0.13640746 -0.6852329 0.3274483 0.5580915 -0.34067103 -0.626154 -0.5563091 -0.35376772 -0.110757135 0.103619464 0.2803725 -0.43054438 -0.06963342 -0.3790218 -0.009009677 -0.65228194 0.34244424 -0.0060980353 0.18719494 -0.17544383 0.020337388 -0.122491315 -0.4103173 -0.48102194 -0.058922034 0.19609648 0.6347975 0.13596192 -0.055801827 -0.08565617 0.045896146 0.75665915 0.052912235 0.24317952 0.015806409 -0.5762474 -0.14468622 -0.5200196 -0.010612488 0.01985433 0.20325206 -0.3710626 -0.31645542 0.1383622 0.15435089 0.41479123 0.13277689 -0.22478952 0.19914189 -0.40280032 -0.038424313 0.29607806 0.3233805 -0.010128649 -0.12142995 0.37066558 0.18238233 0.22975202 0.09211172 0.14374882 -0.3088055 0.06655802 0.25957057 0.47121727 -0.052951314 0.38953343 -0.023507198 0.13767761 0.41670385 0.04126808 0.442272 0.15887746 -0.1522056 -0.0312622 -0.27531767 0.3382684 0.058802903 -0.32320648 -0.06035939 0.24372892 0.36154604 -0.007468483 0.09979304 0.39331993 0.5971458 0.27047515 0.5007469 0.3180017 0.4794742 0.02222935 0.4278561 0.37981796 0.442774 -0.49833786 0.21571493 -0.34231952
test -0.16026501 0.5634984 -0.28632528 -0.1456897 0.25834438 -0.7353918 0.30513483 0.53930193 -0.17756192 -0.624664 -0.6630437 -0.35446966 -0.06080325 0.04532792 0.30327478 -0.5187219 0.004435845 -0.42646614 -0.028852997 -0.75716805 0.53971523 0.09929786 0.27155045 -0.21719643 0.02835077 -0.02909723 -0.6024048 -0.41965777 -0.07969602 0.3881058 0.6605534 0.14680721 -0.037041258 -0.15027376 -0.07647992 0.87585336 0.1187962 0.1935239 -0.07562004 -0.49738243 -0.30159193 -0.5566289 0.15407829 0.1155149 0.21542773 -0.44026312 -0.32423294 0.12575334 0.1438622 0.44091162 0.074860744 -0.19322617 0.20668018 -0.5659947 -0.1522388 0.18116578 0.3261644 0.0043945634 -0.25385967 0.515476 0.30424595 0.19848028 0.06098638 0.17777349 -0.3872928 -0.016307678 0.21247938 0.4862312 -0.11579678 0.4437655 -0.09818878 -0.016798358 0.4103189 0.037281036 0.4421753 0.053682245 -0.1610441 0.1518256 -0.26420143 0.4599482 0.03133684 -0.28691813 -0.0643987 0.1998224 0.3938391 -0.06474957 0.08341628 0.4972318 0.63108504 0.27438718 0.59033054 0.26890558 0.35971165 0.09050465 0.57249826 0.2930836 0.3388438 -0.37852183 0.19630197 -0.33382675
risk -0.13825913 0.41624123 -0.10281406 0.22503379 0.26848882 -0.5992311 0.54107714 0.5036698 -0.4925322 -0.49095786 -0.6036741 -0.46967962 0.017741434 -0.03919276 0.04159928 -0.5673041 0.03658784 -0.40598357 -0.13704681 -0.9070327 0.53276503 0.027136091 0.3744141 -0.36402294 -0.22735225 -0.09814289 -0.60702085 -0.16262172 -0.27672997 0.35665748 0.5353622 0.13421905 0.07600812 -0.2538985 -0.08738538 0.8549099 0.061181005 -0.14799835 -0.17330907 -0.39227563 -0.099391185 -0.45067796 -0.09675265 0.38218465 0.17464483 -0.46789387 -0.078622214 -0.023061527 0.26601142 0.42611217 0.060444936 -0.188071 0.36589223 -0.33654684 -0.24846102 0.22451578 0.2465947 -0.10830803 -0.46011165 0.49350166 0.29590443 -0.03802565 -0.01075946 -0.13671441 -0.6647383 -0.071564436 0.038077433 0.5718985 -0.14486533 0.31643635 0.032352243 0.0593708 0.4242062 -0.10375798 0.37685007 0.07730846 0.101874165 0.097148284 -0.2537279 0.31930003 -0.26846918 0.020067472 -0.16265449 0.2687961 -0.011001051 -0.12518193 -0.00018367419 0.40255004 0.7220058 0.34466815 0.7850944 0.26440504 0.17337494 0.118398584 0.5695485 0.3764125 0.27581528 -0.5139854 0.30363673 -0.22609158
file -0.24101555 0.41036716 -0.31306154 -0.3177179 0.1342303 -0.75559574 0.34697378 0.5793784 -0.36176646 -0.6542977 -0.57708484 -0.42729858 -0.08878218 0.17969464 0.36035267 -0.49538407 -0.05304474 -0.46100694 0.011638352 -0.59178925 0.3530227 -0.06818599 0.11655968 -0.18473847 0.016818399 -0.15320465 -0.4688937 -0.575275 -0.048944555 0.16286781 0.7774606 0.120927714 -0.09988339 -0.0733986 0.07298722 0.7793627 0.07368545 0.43799683 0.07254509 -0.6302132 -0.12335544 -0.5712532 -0.034025285 -0.046957295 0.15512899 -0.32895234 -0.39422828 0.20226817 0.17218511 0.47052228 0.13344485 -0.2728824 0.21705548 -0.4160127 0.030200219 0.37408534 0.37958008 0.010008792 -0.08488545 0.40702122 0.13924944 0.24574167 0.12685166 0.16595484 -0.24698068 0.119616516 0.28060368 0.51055586 0.0061633787 0.3521285 -0.0016943532 0.16046341 0.4877851 0.06389623 0.5019226 0.10801247 -0.2116728 -0.10868096 -0.29842508 0.30534726 0.09875012 -0.37281597 -0.018414684 0.23737344 0.4694791 -0.031245729 0.14153704 0.3895064 0.64629966 0.28987372 0.5105664 0.37385312 0.57792574 -0.0273097 0.42589802 0.42838454 0.44079095 -0.53782946 0.1880311 -0.339353
design -0.15302384 0.4599015 -0.25966406 -0.08349352 0.19155942 -0.71120644 0.3593902 0.5259236 -0.302071 -0.5842614 -0.6198541 -0.39712492 -0.019734276 0.05510069 0.27653414 -0.50424635 -0.0054717315 -0.4282489 -0.06924765 -0.7044793 0.48654047 0.051691696 0.28421035 -0.2301202 -0.016263664 -0.06614914 -0.53284866 -0.36879352 -0.13391395 0.31834695 0.672329 0.1342774 0.038579684 -0.17548043 -0.077274084 0.8422043 0.08751345 0.1398938 -0.07541446 -0.4530586 -0.20543718 -0.49422732 0.04679015 0.11377059 0.22898376 -0.37833676 -0.27111664 0.09304308 0.15747668 0.41673866 0.044535484 -0.17741431 0.23690847 -0.44866514 -0.10607122 0.2329424 0.29403168 0.0018571393 -0.21389915 0.48554692 0.23108795 0.17074843 0.03390947 0.09210556 -0.39752635 -0.00385579 0.15094365 0.48724958 -0.035582285 0.39096835 -0.048107542 0.06292488 0.42053723 0.04824536 0.42050043 0.078902155 -0.10542057 0.065635614 -0.26588234 0.38829836 9.268014e-05 -0.25446028 -0.09844922 0.21625645 0.25953022 -0.09453753 0.08178606 0.39934373 0.63230044 0.27837643 0.57729536 0.31531206 0.3107831 0.060900748 0.5068109 0.33231664 0.29904726 -0.45185617 0.23556404 -0.30562487
attacker -0.18294923 0.33506882 -0.22906654 -0.3073141 0.16937798 -0.6397328 0.3158563 0.5852094 -0.3928682 -0.63799906 -0.54883903 -0.33999857 -0.15038337 0.1561767 0.24044043 -0.43195966 -0.11209307 -0.38881952 0.016325269 -0.7040573 0.31544858 -0.025844702 0.1840319 -0.16517536 0.038512964 -0.16113393 -0.32837093 -0.4763877 -0.048549127 0.14454414 0.56097966 0.12832484 -0.14400643 -0.080900885 0.08580883 0.73387057 0.014929035 0.25741866 0.015559648 -0.6319468 -0.15066884 -0.49188027 -0.075041376 -0.0010823486 0.20451689 -0.32705894 -0.3901568 0.1501985 0.13156025 0.43186468 0.19346815 -0.2626475 0.18621235 -0.395971 -0.049683068 0.27785766 0.28044936 -0.0067182155 -0.12038829 0.28039685 0.1523356 0.18602191 0.1496603 0.17379001 -0.33026516 0.04876395 0.32203934 0.47694683 -0.111154415 0.39673072 -0.009149745 0.23396587 0.3985833 0.003667514 0.4307171 0.17537108 -0.17436665 -0.09660458 -0.28406316 0.32530096 0.0017461632 -0.35792905 -0.09808623 0.25748733 0.3693913 0.00960185 0.11781999 0.41038904 0.60701716 0.2848952 0.44486362 0.34029627 0.56580085 0.008428462 0.4123359 0.46542636 0.49052995 -0.53777695 0.23831464 -0.39497477
management -0.0923193 0.4196083 -0.08983529 0.26801935 0.22256024 -0.6695461 0.5469474 0.5427338 -0.51271194 -0.5333285 -0.58840305 -0.57172775 0.071455576 -0.079144396 0.10174939 -0.607217 0.0619781 -0.4425398 -0.18180643 -0.9268756 0.5709301 0.034674447 0.35014495 -0.4109051 -0.286758 -0.06736263 -0.6519383 -0.1869867 -0.35727394 0.32638308 0.592316 0.12074291 0.17318238 -0.303367 -0.08756227 0.91071975 0.14019552 -0.14799552 -0.19816941 -0.34054956 -0.09613807 -0.49073678 -0.13785185 0.4494021 0.15776274 -0.47908008 -0.06684964 -0.047381014 0.27781418 0.43988672 -0.0045021395 -0.19506909 0.3950519 -0.32069325 -0.2337723 0.2656136 0.27283922 -0.096182615 -0.4573578 0.57975334 0.27433828 -0.059148826 -0.00911406 -0.15509164 -0.69978565 -0.029040707 -0.100244425 0.6284287 -0.0906162 0.25012603 0.019107552 0.0794347 0.45972905 -0.063990004 0.42097133 0.0573198 0.1479009 0.067114085 -0.27673897 0.31241575 -0.266526 0.026321031 -0.18464799 0.27068698 -0.10384247 -0.13158126 0.0051114564 0.35764468 0.7754387 0.33885816 0.8124443 0.31321123 0.17565931 0.15784113 0.6082824 0.41212714 0.2048714 -0.56183124 0.2819527 -0.28158867
development -0.14432578 0.4667871 -0.2125569 -0.005980909 0.26942632 -0.71533114 0.31825483 0.42029384 -0.1641654 -0.53856033 -0.6304943 -0.38520536 0.054601584 -0.014261891 0.28852198 -0.51205724 0.010367174 -0.4450295 -0.049832534 -0.6589453 0.57028294 0.13051714 0.3454036 -0.2587748 0.03627877 0.02763582 -0.6019823 -0.26079482 -0.16155744 0.40102056 0.6697897 0.1821027 0.05878553 -0.16404158 -0.15509254 0.8709789 0.1487668 -0.0019362376 -0.14491154 -0.34106058 -0.28207335 -0.5165889 0.11159237 0.18471515 0.26058188 -0.38687038 -0.20286162 0.10554118 0.10321153 0.35624218 0.053857338 -0.13501179 0.28158516 -0.51314783 -0.23204182 0.1761981 0.26076493 0.02874116 -0.25558752 0.54779965 0.30785564 0.17057724 -0.016665574 0.06293538 -0.38262543 -0.056751497 0.06975282 0.46541572 -0.051316984 0.4543288 -0.13259634 -0.0005681621 0.38797846 0.047145166 0.40945143 0.060360786 -0.089609966 0.14289585 -0.19770235 0.47075492 -0.010535334 -0.22556017 -0.09835493 0.12929502 0.23373497 -0.1197216 0.0038848815 0.39158514 0.64770395 0.27130327 0.6311856 0.2927489 0.16142298 0.050749447 0.58077884 0.21974786 0.22119837 -0.32468998 0.18077682 -0.303143
service -0.16637881 0.39347684 -0.27261534 -0.26093876 0.18998131 -0.70497376 0.38402313 0.63340664 -0.3211102 -0.6458942 -0.5649032 -0.28983986 -0.19024082 0.044482466 0.32708693 -0.42701033 -0.12310665 -0.43391258 0.015532436 -0.7654926 0.36906648 0.024537824 0.2863502 -0.24424528 0.025537854 -0.09659549 -0.39177385 -0.4325865 -0.058840238 0.23269026 0.5974271 0.06381103 0.0021839882 -0.09827305 0.08628399 0.7253517 -0.010557279 0.18480915 0.013697681 -0.6708039 -0.15489833 -0.5598422 -0.10015642 -0.0056554493 0.284502 -0.4747845 -0.32021308 0.16700834 0.13483357 0.46450227 0.14593428 -0.29210964 0.25900328 -0.40991598 -0.073458344 0.23359278 0.29642773 -0.0115144905 -0.23085445 0.32633165 0.21344887 0.1961179 0.13865246 0.19304207 -0.34720618 0.06969595 0.38966525 0.5992235 -0.15788713 0.47278622 -0.026314959 0.1320644 0.43222162 -0.029226068 0.41315252 0.18203415 -0.21044737 0.028970178 -0.3021006 0.30934015 0.04148005 -0.3736306 -0.111358516 0.2730933 0.43938383 0.01660233 0.14995828 0.41783905 0.5919232 0.2553681 0.484754 0.3481756 0.5460655 -0.06880125 0.4337935 0.4634087 0.5791076 -0.45800602 0.31232506 -0.40877452
web -0.10612537 0.33985284 -0.24932142 -0.20680559 0.103775546 -0.625491 0.36183518 0.6573741 -0.3428834 -0.6509397 -0.53305554 -0.28102183 -0.2531056 0.13774249 0.28614786 -0.40546924 -0.095846325 -0.39046872 -0.019777255 -0.5677372 0.3234073 0.08388414 0.23369518 -0.17217614 0.076031536 -0.179992 -0.3276427 -0.4443193 -0.0088929925 0.20236737 0.55122775 -0.023837706 -0.019009288 -0.0815564 -0.08814556 0.79229826 -0.016982183 0.28183323 0.06594554 -0.5188928 -0.18048827 -0.42492646 -0.08642631 0.012882281 0.19565566 -0.22412308 -0.34454903 0.15783773 0.073569976 0.35081926 0.14542435 -0.11355358 0.18349363 -0.50818115 -0.010051324 0.3210016 0.21976756 -0.0019491687 -0.12354472 0.27923778 0.05334699 0.11218884 0.082575694 0.23983382 -0.28540066 0.028731488 0.219774 0.4258701 -0.06403842 0.3542484 -0.03350225 0.13123591 0.32730934 0.055298503 0.4304051 0.051286194 -0.16610165 -0.12159335 -0.20984663 0.32696974 -0.007859502 -0.36231232 -0.03867187 0.20382605 0.43721202 0.0015891154 0.20748 0.20383616 0.5206498 0.26904777 0.39947945 0.21343382 0.59093297 -0.016321048 0.35637036 0.44118422 0.34092563 -0.4018811 0.29915354 -0.38844582
device -0.22245131 0.38097087 -0.27953362 -0.29792303 0.12728186 -0.70075434 0.34292954 0.60544246 -0.38395083 -0.6425758 -0.54913044 -0.40201223 -0.094569236 0.15895897 0.32026768 -0.48821104 -0.082809806 -0.372517 -0.0067148684 -0.6262503 0.36623374 -0.03594275 0.16351725 -0.19748193 0.00765388 -0.1538119 -0.3896041 -0.5135494 -0.07849658 0.17300805 0.6285873 0.10380648 -0.077629186 -0.11278398 0.04952254 0.80736357 0.05319978 0.29859054 0.037903268 -0.5961093 -0.08744609 -0.4934169 -0.023389867 -0.021618834 0.19425218 -0.32390803 -0.35668224 0.14621939 0.15274818 0.4244341 0.13646422 -0.28053293 0.2348786 -0.39014375 -0.0214195 0.3338055 0.33206344 -0.004348449 -0.110534295 0.32122344 0.17798553 0.23000886 0.095784806 0.15116933 -0.30662397 0.120942265 0.2986227 0.51555705 -0.038496587 0.35737732 0.010915535 0.1738336 0.45396858 0.04890078 0.4830889 0.18497589 -0.17109555 -0.074628174 -0.3146748 0.3358938 0.038116258 -0.3358644 -0.0670454 0.2687588 0.39091688 0.001982351 0.15500806 0.3557627 0.5940199 0.29153764 0.5034895 0.35103497 0.53529364 -0.02663197 0.38855705 0.44487798 0.4105936 -0.5503319 0.22452076 -0.33319807
exploit -0.17810656 0.35278305 -0.20331672 -0.2640934 0.13242008 -0.6544653 0.35170728 0.61774856 -0.35963494 -0.6209395 -0.55249804 -0.32468936 -0.16960275 0.14013244 0.26444238 -0.46108598 -0.11079825 -0.36239192 -0.0044091563 -0.63929987 0.3707986 -0.00048437068 0.23059528 -0.18782087 0.035917234 -0.17865922 -0.35034958 -0.44768193 -0.048472352 0.18378374 0.5973573 0.08382206 -0.0643635 -0.12358827 0.03565129 0.7415052 0.02633666 0.27105793 0.033554293 -0.592674 -0.13797008 -0.46883777 -0.07870054 -0.0315576 0.19957045 -0.34471855 -0.33151737 0.15244621 0.170109 0.40907246 0.17796694 -0.19941832 0.19434915 -0.44847357 -0.003724392 0.31746054 0.29001078 0.008308155 -0.123475194 0.29865795 0.12863079 0.18968363 0.12935321 0.14142404 -0.31047413 0.06685786 0.32297572 0.45649216 -0.09175256 0.3747639 -0.01154832 0.18130118 0.42595682 0.046682898 0.4472459 0.16556907 -0.17031284 -0.09260692 -0.33257893 0.33257037 -0.03534191 -0.35286167 -0.08688336 0.26514637 0.35738745 -0.017666092 0.15673153 0.32029724 0.58111 0.31438798 0.509989 0.30495283 0.5878892 -0.030722376 0.39227003 0.45075035 0.46561304 -0.47906876 0.23322563 -0.4087169
time -0.22289807 0.47822353 -0.2920952 -0.20999251 0.18476668 -0.7614806 0.40366083 0.58695793 -0.34047896 -0.64680445 -0.62834466 -0.4215457 -0.06913236 0.08304961 0.33111793 -0.514657 -0.06443819 -0.42513815 -0.031686246 -0.6870006 0.42999223 -0.044737145 0.1860093 -0.20664872 -0.015737552 -0.10115554 -0.51803815 -0.51252675 -0.1112769 0.23879129 0.6905779 0.14492199 -0.028768243 -0.12799275 -0.00038829958 0.87468356 0.09398905 0.27898464 -0.036477014 -0.5801932 -0.16334352 -0.5535095 0.03193899 0.048246548 0.22423248 -0.43339354 -0.3008856 0.17238183 0.17027766 0.4661542 0.09714137 -0.25795785 0.23923717 -0.46007863 -0.07528259 0.28793845 0.34772462 -0.018373996 -0.15943357 0.4398729 0.23035377 0.23056775 0.064278245 0.13373432 -0.31656832 0.023773285 0.29134774 0.57023984 -0.02213134 0.39348808 0.0007380826 0.11190562 0.45522198 0.051701054 0.5080844 0.15783158 -0.1571333 0.005920063 -0.26286888 0.38404742 0.04077162 -0.331089 -0.062996954 0.2333779 0.3752227 -0.05776634 0.13267595 0.44940326 0.65412277 0.2932545 0.5766919 0.3770107 0.4593951 0.030522985 0.51582104 0.4186334 0.44373488 -0.5018908 0.23712516 -0.33068132
type -0.19425078 0.39867637 -0.23722978 -0.23313853 0.15888584 -0.66728276 0.33664155 0.5344616 -0.28617802 -0.58575517 -0.56329864 -0.3386457 -0.10509504 0.08119811 0.3119841 -0.44006354 -0.057728387 -0.37654686 -0.010161139 -0.630824 0.3700463 0.007574383 0.20242049 -0.18537894 0.041598536 -0.060390163 -0.441384 -0.47362623 -0.09353184 0.22950417 0.6044294 0.13251744 -0.03673867 -0.11358283 0.019199692 0.72927827 0.050569877 0.2471326 -0.026170736 -0.5379731 -0.15224232 -0.50569427 -0.0045456253 0.036781136 0.19587208 -0.38349918 -0.30862498 0.14858648 0.13232473 0.40928766 0.11330442 -0.24521792 0.20592394 -0.38507888 -0.072482206 0.2652793 0.29861954 -0.016386688 -0.14932606 0.33509284 0.21397059 0.2189968 0.09641103 0.1711699 -0.28750518 0.08802542 0.27195477 0.4967723 -0.045355365 0.37605396 -0.028074503 0.14272821 0.39733008 0.008930081 0.42931083 0.17112443 -0.1756318 0.03528209 -0.27587706 0.3358237 0.05836152 -0.3100099 -0.056545682 0.21297058 0.34964257 -0.006807234 0.1343889 0.39675033 0.54939926 0.20900175 0.49046156 0.33906463 0.44389823 0.0062135775 0.4036673 0.37331346 0.43966168 -0.43998066 0.19108354 -0.333135
case -0.22984093 0.49630886 -0.28539723 -0.15670976 0.23511957 -0.7213039 0.3445835 0.5506493 -0.31048885 -0.6690052 -0.69270825 -0.40215537 -0.09809067 0.11313901 0.2759852 -0.5769411 -0.063246965 -0.42756596 -0.010629556 -0.77885336 0.51268005 -0.001455102 0.27672592 -0.2127741 0.048606534 -0.0883567 -0.5267442 -0.49784303 -0.061852265 0.37101588 0.7014697 0.18291648 -0.07650526 -0.12370677 0.01925133 0.8947263 0.049225733 0.22902118 -0.03257963 -0.60971695 -0.24368872 -0.5960838 0.11074095 0.07922378 0.205981 -0.46448913 -0.31370127 0.114913 0.20128784 0.49193808 0.106697686 -0.24058819 0.25963265 -0.51931137 -0.150095 0.25020763 0.34676194 -0.016282221 -0.2521752 0.46642762 0.27851942 0.26228058 0.061283033 0.15018287 -0.42992494 -0.024464859 0.30361483 0.5879095 -0.10593467 0.49225414 -0.017808758 0.052807134 0.4513125 0.04036757 0.45590487 0.16555767 -0.15414377 0.12318723 -0.26119035 0.4260786 0.03196438 -0.356862 -0.043124177 0.2290472 0.38707215 -0.053702768 0.07588003 0.49254966 0.6919748 0.31674603 0.5994458 0.2975353 0.39992753 0.09021204 0.54072726 0.40395513 0.4348051 -0.5537105 0.2042364 -0.30982137
know -0.20735247 0.44680113 -0.27071044 -0.24390516 0.1806729 -0.70120597 0.3511649 0.5693146 -0.3283668 -0.6292736 -0.61326146 -0.36576962 -0.12051597 0.09406143 0.32462955 -0.4999703 -0.06253703 -0.4168955 -0.0071676555 -0.6525808 0.41440976 0.021206133 0.24287125 -0.18465894 0.024060266 -0.09591327 -0.47238034 -0.48955312 -0.07622665 0.23658124 0.6422236 0.10792819 -0.05182737 -0.09831079 0.013104178 0.8167254 0.03587125 0.27282828 -0.018659707 -0.5830265 -0.18121988 -0.5265166 0.016655881 0.03515828 0.19842337 -0.38649455 -0.31732035 0.1546637 0.13536862 0.4336463 0.12317766 -0.21801293 0.22390248 -0.43336722 -0.06331724 0.2682526 0.32225388 -0.021750817 -0.17534174 0.364319 0.22430542 0.22730245 0.086944066 0.1815497 -0.31282932 0.055555798 0.3025026 0.5131996 -0.05247333 0.4237634 -0.013896513 0.115934744 0.43522057 0.025960349 0.45082426 0.16911435 -0.17788096 0.012198439 -0.2794195 0.34152818 0.028438125 -0.34821475 -0.062471583 0.2296491 0.4025172 -0.007699644 0.13664046 0.42267844 0.6093208 0.27035132 0.5345844 0.3421697 0.484616 0.0023334818 0.4551045 0.4167104 0.43223876 -0.4740963 0.23304872 -0.35400125
malicious -0.2115351 0.3406434 -0.26518738 -0.30407274 0.10687371 -0.64100677 0.25817478 0.50809175 -0.2451605 -0.56606156 -0.55859774 -0.29350063 -0.13349365 0.12360452 0.36073735 -0.41615754 -0.069771454 -0.37406015 0.026938293 -0.47118172 0.3300111 -0.022082588 0.15684047 -0.1511257 0.105899125 -0.08749793 -0.36682156 -0.45822674 -0.05176674 0.17109369 0.61957026 0.100807 -0.08962454 -0.057652175 0.016007965 0.65746564 0.047540665 0.3569642 0.049371045 -0.48824328 -0.15126532 -0.44522235 -0.0014885322 -0.08415257 0.16197972 -0.3153211 -0.35205048 0.18181367 0.10635087 0.35919276 0.14664683 -0.20712663 0.16580941 -0.38142133 0.005638192 0.31135976 0.28900117 0.0005516491 -0.089469664 0.28460377 0.1222531 0.24044779 0.09350579 0.21304928 -0.15289988 0.101801045 0.2788957 0.42841187 0.002588002 0.36732253 -0.018977532 0.15631515 0.3861922 0.054279868 0.4212561 0.10636706 -0.1972919 -0.04275958 -0.21443938 0.283244 0.07074547 -0.3661735 -0.054294564 0.23179619 0.4366546 -0.014899368 0.17826886 0.33934745 0.4728383 0.2036793 0.43045485 0.3021529 0.5158255 -0.059643302 0.32641178 0.37166932 0.36787635 -0.422087 0.16857809 -0.33700296
tool -0.2111851 0.49336156 -0.24243712 -0.16294672 0.22382954 -0.71466225 0.36902204 0.5831605 -0.30493978 -0.6508335 -0.64553523 -0.39706728 -0.08220848 0.09777596 0.30163574 -0.5241469 -0.035060607 -0.43157554 -0.06894421 -0.72132367 0.44428116 0.023796538 0.24682948 -0.22975276 0.03090134 -0.10195811 -0.49123558 -0.41778982 -0.10777159 0.2666008 0.65423065 0.11689145 -0.040218655 -0.15694873 -0.06812916 0.8380983 0.07192078 0.22838826 -0.025306504 -0.53842694 -0.20751353 -0.51297367 0.032801215 0.057047717 0.20575467 -0.42103294 -0.296259 0.12552641 0.16047943 0.44827136 0.11551697 -0.18863879 0.22887033 -0.47175133 -0.10202118 0.24395986 0.31531018 -0.01090243 -0.23257454 0.4390284 0.24116842 0.18398057 0.07924117 0.1296049 -0.36284125 -0.013572648 0.22476017 0.50586355 -0.063388236 0.4313998 -0.020129306 0.09657463 0.4353726 0.032739587 0.44769037 0.109059446 -0.13856433 0.016002586 -0.25602028 0.357519 0.0058215093 -0.28436437 -0.09628594 0.22706737 0.3611872 -0.06260008 0.10759135 0.4334852 0.6125465 0.3065732 0.59747 0.3096317 0.44483814 0.030953906 0.50676304 0.41818258 0.37145078 -0.48255318 0.24695924 -0.35747573
target -0.19658579 0.39626032 -0.2641884 -0.27154538 0.1712432 -0.69276583 0.36039108 0.58080745 -0.35122254 -0.6019694 -0.55175453 -0.32935774 -0.15146302 0.097719945 0.2828273 -0.4612231 -0.084122345 -0.38118207 -0.013614928 -0.6596887 0.36897674 -0.03824726 0.21165839 -0.200594 0.028880892 -0.14826652 -0.39110512 -0.47346058 -0.04859194 0.1695022 0.63995427 0.11003731 -0.08510696 -0.08844657 0.07220014 0.75157326 0.04114872 0.25736505 0.019386858 -0.6254627 -0.105521955 -0.5078665 -0.03618164 -0.008020791 0.18890998 -0.36998737 -0.35655046 0.16897132 0.15412447 0.4316339 0.15763387 -0.25133535 0.22833258 -0.40058476 -0.0793287 0.30735806 0.31114137 0.011407333 -0.13509454 0.33991057 0.22461914 0.19125469 0.09564147 0.13183017 -0.29395327 0.05222183 0.31752968 0.4906754 -0.087867364 0.3819512 -0.03667713 0.14796281 0.4168869 0.018740771 0.45287526 0.16196634 -0.18415819 -0.04373637 -0.27691785 0.3240533 0.013529471 -0.32066187 -0.0763549 0.24995868 0.37855288 -0.014213634 0.13772947 0.36957642 0.59758127 0.26803368 0.48617765 0.32182205 0.5126126 -0.03882073 0.44566384 0.4288145 0.44070336 -0.49949193 0.23160383 -0.35813814
change -0.18942307 0.39587533 -0.25460163 -0.13297851 0.1713901 -0.6984912 0.35352933 0.5290222 -0.32367474 -0.60479814 -0.5561628 -0.41308752 -0.04756301 0.093851425 0.24959505 -0.46708426 -0.035710692 -0.4263796 0.0003979459 -0.704639 0.40756246 -0.020621471 0.20510495 -0.2402784 -0.047604356 -0.10820638 -0.5184286 -0.4066701 -0.09428911 0.2428671 0.6414932 0.16165271 -0.019623801 -0.114342466 -0.016987318 0.80449843 0.075302176 0.15053578 -0.06409621 -0.4866198 -0.15417612 -0.49850345 -0.026617784 0.1279344 0.19102867 -0.3613702 -0.26295102 0.115784235 0.1642738 0.42378575 0.09063612 -0.20034097 0.24859394 -0.38972384 -0.07994874 0.27939528 0.32785544 -0.03821218 -0.19343592 0.47740766 0.20861472 0.15959653 0.07653507 0.08350726 -0.404075 0.01193284 0.16751042 0.49184912 -0.049057078 0.34228456 -0.0018091006 0.06532022 0.43955368 0.042100534 0.44234377 0.05937929 -0.083982565 -0.023194358 -0.27688468 0.34375876 -0.023047514 -0.23169895 -0.07275366 0.23538549 0.3154752 -0.044469398 0.09000415 0.41178042 0.6572851 0.30685607 0.5711703 0.3227262 0.35739055 0.08816107 0.52447593 0.39043248 0.3098511 -0.48729736 0.19821429 -0.28531164
provide -0.19258739 0.4503116 -0.22211838 -0.09897712 0.19622785 -0.7243698 0.39916024 0.57579285 -0.38270882 -0.65188956 -0.60535496 -0.4109296 -0.058661323 0.047810066 0.2557405 -0.50378656 -0.044443667 -0.42272612 -0.04384255 -0.7531985 0.41883263 0.03173621 0.23299365 -0.25826874 -0.040779255 -0.10145961 -0.51335585 -0.42642322 -0.13248223 0.24957955 0.62125736 0.13705412 -0.03356552 -0.13716365 -0.004911166 0.8765302 0.05953487 0.14732036 -0.036408667 -0.5745082 -0.1560394 -0.53104645 -0.046309114 0.13373893 0.2203198 -0.40175012 -0.27471796 0.08757959 0.17271154 0.4575153 0.0871148 -0.24206015 0.23946726 -0.43977162 -0.11927246 0.2659973 0.29777482 -0.044665202 -0.21960972 0.44662455 0.23414817 0.17858967 0.06161361 0.06335021 -0.43912286 0.026316086 0.17620982 0.55469114 -0.045763087 0.39181256 -0.013520591 0.12592061 0.44472393 0.015253028 0.4685981 0.12885724 -0.10959903 -0.022179749 -0.27258527 0.36296135 -0.008107819 -0.26461217 -0.097754404 0.24885388 0.27196166 -0.065267034 0.07862203 0.39588705 0.6594586 0.29016605 0.59817475 0.34436145 0.3987544 0.08384906 0.51637137 0.42361885 0.3880365 -0.5154598 0.23682022 -0.33523715
article -0.1063878 0.65300924 -0.3981661 -0.19155926 0.36339423 -0.78598154 0.28639475 0.6241229 -0.1212471 -0.49353576 -0.638891 -0.1889376 0.043973293 0.16127487 0.4582109 -0.5548143 -0.039063487 -0.486438 0.0057569053 -0.5900004 0.61804295 0.2219993 0.38924512 -0.19119321 0.0047040354 -0.06826425 -0.670296 -0.2677306 -0.17528659 0.42669186 0.6593813 0.026689935 0.11969915 -0.13119009 -0.026213333 1.010484 0.09758562 0.21688956 -0.23135038 -0.19655164 -0.37981367 -0.47908035 0.12596437 0.12156939 0.10804349 -0.25192088 -0.31295866 0.20510596 0.064005025 0.33784708 0.08567837 -0.2647293 0.24239446 -0.6155592 -0.14753386 0.18868926 0.28119904 0.078067526 -0.32586998 0.42854428 0.45274037 0.0032574364 0.07414165 0.26351246 -0.44444314 0.11226613 0.17172618 0.47830707 -0.08928088 0.540924 -0.06964097 -0.051661592 0.37653175 -0.067167215 0.4557965 0.04936146 -0.04410484 0.116499044 -0.21769342 0.40238562 -0.11268279 -0.2364393 -0.20313233 0.123830736 0.3651665 -0.03616476 0.12737556 0.45473415 0.6727088 0.21793625 0.6194291 0.29506502 0.24527612 0.004058109 0.3234501 0.22615498 0.35304677 -0.33506903 0.10395935 -0.470467
organization -0.18059112 0.4592348 -0.19660547 -0.011156813 0.23436178 -0.6672099 0.40090653 0.5208815 -0.38420656 -0.5582681 -0.6127831 -0.39697024 -0.03014063 0.003671356 0.21800204 -0.5112888 -0.013067709 -0.41453478 -0.08618326 -0.75269115 0.4334771 0.034081355 0.29995292 -0.2873883 -0.081454426 -0.07374734 -0.5570662 -0.35225558 -0.18816125 0.30257076 0.6269625 0.12052419 -0.0006954093 -0.1876858 -0.020424027 0.832533 0.06527038 0.032299157 -0.08344761 -0.52174866 -0.14374138 -0.49083087 -0.012966801 0.2038314 0.20671754 -0.44643402 -0.21476118 0.06297924 0.18058552 0.42451084 0.07412421 -0.23508818 0.2945538 -0.37846425 -0.18171328 0.21838729 0.2966926 -0.05450569 -0.3028199 0.44932255 0.271346 0.14225082 -0.021629727 0.00260322 -0.44291514 -0.03398773 0.15792894 0.5346591 -0.06924437 0.3549244 0.00481151 0.057105947 0.41343322 -0.057611182 0.39310682 0.14027144 -0.050852228 0.0745427 -0.21672302 0.34225082 -0.07943648 -0.15473676 -0.10283312 0.22721142 0.17595422 -0.06339228 0.049838554 0.43146822 0.6545145 0.30317745 0.6500045 0.33402088 0.25269833 0.06547171 0.54807144 0.38723326 0.3386379 -0.49602684 0.2727584 -0.2628259
allow -0.18809806 0.38555145 -0.23812893 -0.23570009 0.16461569 -0.6949621 0.33858782 0.59345925 -0.37498686 -0.64789397 -0.58589554 -0.40326113 -0.107084066 0.103363656 0.25979027 -0.46594578 -0.07761685 -0.42297238 0.004006877 -0.70228523 0.37276876 0.0049940078 0.21175376 -0.2170869 0.013785743 -0.14626336 -0.4203458 -0.49003744 -0.0814777 0.19565171 0.6307146 0.14448604 -0.05943684 -0.102723084 0.020412484 0.8256683 0.03138929 0.23549326 -0.01617575 -0.6067371 -0.15076487 -0.5303429 -0.06888275 0.0581575 0.1872281 -0.3478326 -0.3425003 0.11050757 0.14626363 0.45408073 0.14990826 -0.24412476 0.20032717 -0.43016922 -0.041869435 0.29074943 0.30994242 -0.015581456 -0.16007842 0.3877522 0.17030764 0.19882743 0.1088263 0.12242913 -0.3551458 0.07113993 0.24611403 0.4928075 -0.071075924 0.3799973 -0.025143348 0.18904266 0.43605563 0.03098172 0.4759537 0.12724441 -0.13279466 -0.09983059 -0.3077041 0.35710046 -0.0044530276 -0.32426473 -0.091239914 0.24429803 0.33964613 -0.03115153 0.119985886 0.40862685 0.6353593 0.30369523 0.52951175 0.34407 0.51125085 0.051637795 0.4640881 0.45092595 0.42584562 -0.51797557 0.2390132 -0.38457105
detection -0.20506887 0.484934 -0.3071161 -0.1981849 0.1973481 -0.7609034 0.3102291 0.4666611 -0.37981388 -0.55939096 -0.6211124 -0.43351504 0.0034915572 0.13962123 0.46743348 -0.5379575 -0.09664132 -0.3389244 -0.10644442 -0.54874367 0.44742432 -0.13997778 0.09057399 -0.19928588 -0.05437724 -0.12779473 -0.47668365 -0.48307332 -0.21030004 0.11098072 0.6885585 0.10395796 0.02328901 -0.13343564 0.0005942275 0.6934816 0.12232545 0.43050063 0.051392425 -0.49445933 -0.046568017 -0.4987909 -0.021689339 -0.0005916893 0.123256996 -0.33281103 -0.22887698 0.24876821 0.11033711 0.43850324 0.08781698 -0.2941627 0.17542917 -0.36154434 0.08595678 0.36396775 0.27847454 0.036026202 -0.16804817 0.394639 0.2265553 0.2722936 0.13059591 0.22306415 -0.16017827 0.104874626 0.27318975 0.54542875 0.10144318 0.41788638 -0.078843534 0.12469033 0.44520643 0.06862208 0.5437034 0.20385383 -0.17724335 -0.0023242224 -0.30079305 0.22286698 0.16740681 -0.39321154 -0.08374957 0.24745812 0.26349366 -0.014752564 0.2563269 0.27448156 0.5482985 0.22056574 0.5430563 0.3430675 0.43881872 0.026790604 0.2957605 0.45297712 0.39226842 -0.40021768 0.15134786 -0.4056573
source -0.22586475 0.4469772 -0.29568905 -0.23713195 0.16692775 -0.7046028 0.24655052 0.59661037 -0.17437883 -0.6292424 -0.6573607 -0.25411308 -0.12677816 0.15271291 0.29843748 -0.44761574 -0.099691115 -0.48349798 -0.009655177 -0.63229096 0.39995608 0.07227178 0.28336436 -0.19618976 0.03715221 -0.063976526 -0.53114724 -0.47306216 -0.011656913 0.31430233 0.58865935 0.17607938 -0.11818167 -0.104841195 -0.082259834 0.83301824 -0.02398896 0.23145577 -0.09864337 -0.43050224 -0.29338443 -0.49670264 0.041408237 0.042979315 0.24324694 -0.29892582 -0.33713594 0.15327898 0.11084294 0.452371 0.178868 -0.17247573 0.21743765 -0.51200795 -0.11171756 0.17751524 0.28320733 -0.03287905 -0.18469721 0.4514867 0.28716013 0.19651638 0.09501865 0.16881406 -0.30466348 -0.017124562 0.2162388 0.45655757 -0.05656325 0.4410126 -0.045444466 0.009458425 0.40027997 -0.0076696854 0.38232368 0.11972338 -0.17322823 -0.010458831 -0.17245825 0.35471234 0.0076792766 -0.27504396 -0.12713625 0.15076953 0.47639978 -0.108942956 0.119354084 0.5009027 0.5737725 0.3363086 0.52961236 0.2518398 0.36415544 0.03477947 0.5485785 0.4270666 0.33962268 -0.41912958 0.162928 -0.40195724
operating -0.14030701 0.2765475 -0.2516162 -0.1780898 0.06348725 -0.6551832 0.3325158 0.55943435 -0.41859037 -0.4975322 -0.39413863 -0.42836708 -0.05110787 0.1530845 0.26238954 -0.4434174 -0.040312763 -0.37056777 -0.09998598 -0.52106005 0.37262952 -0.10164 0.07962237 -0.18816179 -0.07340711 -0.19376157 -0.321081 -0.42675516 -0.081343174 0.066337496 0.62988144 0.10218403 0.059942372 -0.12384967 0.04191164 0.69625133 0.1307987 0.3081313 0.07386063 -0.49108785 0.0067874743 -0.44912022 -0.1348507 0.024791863 0.08312108 -0.24661314 -0.2596888 0.14789116 0.21538322 0.35655004 0.049230684 -0.21298064 0.21697631 -0.36328754 0.11193677 0.35613093 0.24885572 0.08354143 -0.03224215 0.39504132 0.10152596 0.09274605 0.13075703 0.01791831 -0.2880398 0.09629687 0.11917516 0.4586228 -0.01656372 0.23901942 -0.044847544 0.18060912 0.4296193 0.119293116 0.4613968 0.058279224 -0.1091204 -0.17119151 -0.33421966 0.29180965 0.06011559 -0.23918411 -0.08530392 0.18676059 0.18020816 -0.065389246 0.1378692 0.15983418 0.5560697 0.31385782 0.4953119 0.2886468 0.51923996 0.024914911 0.31374303 0.37480178 0.3104095 -0.44323695 0.1817262 -0.36078003
standard -0.108375296 0.44892085 -0.1796916 0.006079272 0.22195517 -0.68921447 0.35406542 0.5501494 -0.37748146 -0.5877141 -0.6397013 -0.39587924 -0.030814411 0.012036762 0.24578698 -0.5147042 -0.020971233 -0.42573917 -0.14315328 -0.76982826 0.47632298 0.07179638 0.34786013 -0.3035205 -0.097700715 -0.05474116 -0.5964932 -0.33106962 -0.17907304 0.339163 0.6109066 0.09110106 0.048200928 -0.20214513 -0.020652335 0.8922337 0.022391276 0.040779937 -0.07972134 -0.46506727 -0.17650682 -0.5103203 0.010749242 0.25670934 0.22546327 -0.45321956 -0.2067751 0.040534534 0.15062323 0.44939044 0.055673387 -0.19695354 0.280092 -0.40693086 -0.21290593 0.2132546 0.30949745 -0.04521222 -0.28878862 0.46648812 0.2565738 0.11633687 -0.052867576 0.03433793 -0.52648604 0.014785813 0.06167039 0.55829805 -0.02799386 0.34835854 -0.050723128 0.043644395 0.40044588 -0.040267434 0.38416225 0.09411699 -0.06694349 0.08994446 -0.1821346 0.37029564 -0.06931907 -0.1375329 -0.12840539 0.24412854 0.17483681 -0.053140156 0.016219309 0.40245095 0.647541 0.29851103 0.629659 0.29133168 0.23521163 0.05369714 0.5633401 0.38794822 0.3001619 -0.51334643 0.24117482 -0.28096956
model -0.173063 0.5487651 -0.24687445 -0.023152022 0.28972363 -0.8175402 0.45264477 0.60529894 -0.41098478 -0.6972886 -0.764672 -0.5150663 -0.019592306 0.027700625 0.2614884 -0.6396198 -0.022222245 -0.49486816 -0.108280696 -0.90887415 0.5852399 0.09172168 0.37020648 -0.30194733 -0.026246114 -0.06703465 -0.6223774 -0.4094852 -0.18393415 0.38405734 0.7357712 0.15496123 0.020611705 -0.21593058 -0.047850512 1.0014882 0.08948002 0.065785326 -0.11192873 -0.5981522 -0.23976286 -0.62535834 0.029523704 0.22955121 0.24538316 -0.4875413 -0.28841996 0.08871006 0.1680037 0.5086723 0.106308796 -0.27796477 0.29244208 -0.5461819 -0.18852007 0.2632961 0.3341285 -0.039788168 -0.3244643 0.5473947 0.29678413 0.18521413 0.005672454 0.04668684 -0.56744975 -0.017210301 0.17763539 0.6458927 -0.07918149 0.49008113 -0.052662324 0.08790574 0.49659103 -0.011138687 0.4960823 0.14872581 -0.07762528 0.072513714 -0.29762596 0.45880812 -0.05668874 -0.22857693 -0.106251605 0.22898126 0.23016652 -0.096273884 0.023765244 0.47732252 0.78150547 0.3364866 0.72375846 0.36276457 0.34407026 0.09187547 0.6580384 0.42448047 0.416348 -0.5358681 0.2684169 -0.36337778
spyware -0.39085802 0.45279634 -0.37994593 -0.37879232 0.066305995 -0.8050427 0.26564124 0.5485193 -0.13831465 -0.56865615 -0.7408763 -0.27450153 -0.14903413 0.071933515 0.6799041 -0.4814751 0.042815182 -0.46047878 0.004310889 -0.30796823 0.36668587 -0.03686218 0.09084438 -0.061068855 0.26562706 0.058288377 -0.58048445 -0.7412282 -0.026663158 0.32175297 0.856442 0.124998525 0.07744587 0.040689506 0.07586745 0.6448112 0.022413624 0.65838856 0.110957 -0.58235514 -0.15155685 -0.7054422 0.25460756 -0.24706663 0.11108018 -0.46738657 -0.41032138 0.3620524 0.03280622 0.3165725 0.035320185 -0.26826322 0.09933238 -0.342945 0.06934871 0.38534054 0.4748411 -0.107368045 -0.012376144 0.34685457 0.15229827 0.5031263 0.078892894 0.44195247 0.15201907 0.24892798 0.55701506 0.56474364 0.1617218 0.3914652 0.15241598 0.10193091 0.3699158 0.076461166 0.4796664 0.25978902 -0.2722315 0.22323284 -0.18135321 0.27410886 0.33592921 -0.47325975 0.19937745 0.25252 0.6115323 0.09368014 0.3505403 0.5073994 0.36422625 -0.017648255 0.43965358 0.46464756 0.603989 -0.09945312 0.18584128 0.2889982 0.5061638 -0.39621297 0.17498308 -0.21814221
run -0.22443813 0.3767036 -0.283284 -0.26929364 0.10990826 -0.72161657 0.32465187 0.6011247 -0.33875057 -0.62976575 -0.60907656 -0.373369 -0.11163742 0.12109938 0.37274045 -0.47537166 -0.05555737 -0.4173046 -0.010573421 -0.5775403 0.37792358 -0.034119967 0.16539608 -0.18395154 0.043343887 -0.14906253 -0.4335037 -0.53640634 -0.05821475 0.1869799 0.6963252 0.11833501 -0.03168541 -0.081713066 0.030925764 0.78680843 0.064770326 0.35930473 0.059084143 -0.5532038 -0.109114625 -0.536199 -0.027991317 -0.037329543 0.18493155 -0.33974946 -0.34361807 0.18632615 0.164953 0.39865255 0.14752217 -0.2414842 0.19295906 -0.42013714 0.00077642576 0.35488433 0.3211415 -0.011383798 -0.079404086 0.39042392 0.13801788 0.26374865 0.094524376 0.17692405 -0.21567608 0.1132671 0.2718566 0.48275247 -0.0072584166 0.3636866 -0.009283327 0.16277128 0.45236966 0.07632884 0.50145614 0.10712522 -0.1750936 -0.07901503 -0.29304814 0.3325339 0.06322452 -0.3725882 -0.036578424 0.24678177 0.40511337 -0.040001392 0.16409776 0.34278023 0.58337104 0.26849777 0.52630913 0.3339705 0.5547086 -0.01781039 0.40476954 0.41380182 0.40163174 -0.49796054 0.19184615 -0.3463243
method -0.22537324 0.4691826 -0.2615495 -0.1863377 0.20066172 -0.7297114 0.35350987 0.54165566 -0.32990745 -0.636723 -0.6477471 -0.38536555 -0.06919818 0.09227052 0.33961388 -0.51827836 -0.0691088 -0.40853393 -0.031175915 -0.6540115 0.42920223 -0.021527018 0.22998437 -0.20865509 -0.0024300357 -0.07429806 -0.50015277 -0.47673124 -0.1227948 0.26683182 0.6521273 0.13777746 -0.03300676 -0.121537276 -0.007406846 0.7859857 0.04357891 0.26530144 -0.013510787 -0.54798704 -0.1618158 -0.52080643 0.04615048 0.046392217 0.19978145 -0.41269135 -0.2860288 0.15043743 0.14257017 0.43441024 0.09903671 -0.24159697 0.2333091 -0.44176903 -0.065115236 0.24916463 0.33075806 -0.011250704 -0.20289478 0.43158865 0.2444722 0.23555435 0.08895745 0.17887953 -0.3099633 0.05356002 0.27838075 0.5178375 -0.02588822 0.42058817 -0.040327106 0.10166406 0.43857083 0.0062485677 0.47545022 0.17408545 -0.16149665 0.05124263 -0.24842648 0.32999825 0.054836307 -0.31484288 -0.07033782 0.21641536 0.34992167 -0.043640092 0.14047492 0.44234705 0.61834306 0.26168248 0.5608392 0.33917353 0.40901807 0.018010044 0.46440196 0.38989258 0.41887403 -0.47645038 0.22429547 -0.34200007
require -0.18823259 0.4404449 -0.25131264 -0.17742215 0.1952951 -0.7584642 0.38806415 0.61757153 -0.37072596 -0.6669315 -0.63411146 -0.40937755 -0.09484659 0.07183434 0.29706094 -0.5007368 -0.06502234 -0.43350208 -0.017585889 -0.7573381 0.43434376 0.015950413 0.22865279 -0.22387005 -0.010089495 -0.0995755 -0.50454676 -0.5046194 -0.10785221 0.26443562 0.6842058 0.14021261 -0.04879885 -0.12313166 0.032874838 0.8734185 0.055913813 0.20977129 -0.042682145 -0.6174285 -0.16374153 -0.5691532 -0.036529362 0.08459844 0.21915199 -0.4125071 -0.33782423 0.11657726 0.17232609 0.45136937 0.118888535 -0.2600652 0.24034405 -0.44560117 -0.078313634 0.29136115 0.33746287 -0.040429853 -0.18834266 0.4383973 0.20801401 0.21069951 0.07191138 0.09795648 -0.3922865 0.043239135 0.266287 0.5355682 -0.07212983 0.3831673 -0.004789663 0.14615703 0.44276708 0.0027267074 0.47829297 0.14796089 -0.12823549 -0.0066523845 -0.30366853 0.38630813 -0.004006819 -0.29043442 -0.057442944 0.26821572 0.3168945 -0.029664563 0.08844611 0.44565645 0.66336536 0.27751788 0.59780294 0.37083122 0.4595215 0.039119963 0.50634074 0.43545592 0.4272259 -0.55888176 0.24020903 -0.33886257
level -0.15795162 0.43331456 -0.1999236 -0.09918514 0.20139287 -0.6664766 0.3598911 0.5248106 -0.3627492 -0.6101237 -0.5581403 -0.41656575 -0.08297234 0.06594691 0.2363441 -0.47061625 -0.048436534 -0.38634968 -0.03193659 -0.70074314 0.39023796 0.006940643 0.21631385 -0.21466333 -0.04751257 -0.13012479 -0.4442182 -0.36600617 -0.10902508 0.22781484 0.5787023 0.11988446 -0.041995406 -0.13987517 -0.010523056 0.78437924 0.07626264 0.11986301 -0.027800256 -0.5208637 -0.14714116 -0.49424154 -0.024076417 0.15482448 0.20622854 -0.36693683 -0.27445695 0.09813888 0.17266515 0.44063354 0.085982695 -0.23049511 0.24028786 -0.42208245 -0.07846271 0.2584757 0.26233342 -0.025585439 -0.21310861 0.40110746 0.18525553 0.16441141 0.043313008 0.048887853 -0.41522068 0.03155476 0.16691831 0.50673753 -0.062132835 0.3654785 -0.038206555 0.12884538 0.42895663 -0.0043735583 0.44802266 0.11894348 -0.07729782 -0.030597582 -0.2690623 0.35919055 -0.019605698 -0.2351902 -0.09656719 0.22778523 0.26002133 -0.06692703 0.0489279 0.37379456 0.6274934 0.30395564 0.56297654 0.2949313 0.34921286 0.0835073 0.5049073 0.3891249 0.35760388 -0.48338968 0.23980385 -0.31953284
detect -0.24367195 0.48119977 -0.3123509 -0.25532362 0.18831545 -0.76701903 0.35082206 0.58053607 -0.32249004 -0.66718507 -0.6654476 -0.38053828 -0.10601371 0.11419345 0.43066654 -0.53561634 -0.059339594 -0.4143882 -0.042444024 -0.6225254 0.41430575 -0.059718817 0.1887053 -0.19188507 0.04260756 -0.107144274 -0.5078046 -0.5564266 -0.10621939 0.23298132 0.716915 0.11454257 -0.04075151 -0.10804702 0.013195562 0.7817641 0.078606285 0.38527307 0.036980383 -0.5709792 -0.14426014 -0.5668709 0.046371937 -0.01530669 0.19592229 -0.4134779 -0.3511327 0.22507128 0.14886124 0.43977284 0.13385971 -0.27249643 0.209878 -0.43830937 -0.03579011 0.33280486 0.3548936 -0.009811295 -0.15695342 0.40437075 0.22324069 0.2910214 0.107708886 0.23171546 -0.20499527 0.086851954 0.33739027 0.5587864 0.0212414 0.40598685 -0.010875377 0.13026595 0.45154712 0.04262816 0.5058233 0.18070726 -0.21211477 0.03970846 -0.27756965 0.31704018 0.11075939 -0.39932346 -0.035393048 0.2543441 0.41664714 -0.0029951327 0.21290691 0.41770774 0.6003849 0.25063664 0.56325185 0.39745542 0.51659924 -0.016445713 0.422775 0.4221692 0.44859216 -0.48043326 0.21283336 -0.35864702
technique -0.19389574 0.44977227 -0.2239959 -0.1283825 0.20394705 -0.7007573 0.36129552 0.536218 -0.32106277 -0.60943735 -0.65020066 -0.38469568 -0.07000089 0.05171924 0.32761046 -0.5175667 -0.042797063 -0.4210264 -0.071084745 -0.69809073 0.44119403 0.0352135 0.2582725 -0.21443255 -0.017342594 -0.06622063 -0.5217804 -0.42090935 -0.14711219 0.27808446 0.63351613 0.10954901 0.016932966 -0.15152793 -0.02790869 0.8007661 0.04730167 0.21234146 -0.037023462 -0.49298224 -0.16886722 -0.5293017 0.038436506 0.0984549 0.20123057 -0.4181212 -0.279486 0.12216637 0.12896928 0.44027093 0.07294152 -0.22087659 0.23783506 -0.43344247 -0.09069784 0.2398311 0.30797726 -0.012381496 -0.24095328 0.42985258 0.22150128 0.19804423 0.056886584 0.13599148 -0.35683793 0.027154157 0.23423591 0.5412761 -0.024751937 0.39921203 -0.016394185 0.09830807 0.41035497 -0.009015092 0.44922778 0.14876302 -0.13092764 0.0683917 -0.23468493 0.32040244 0.01439713 -0.26128963 -0.08370154 0.24708815 0.29458955 -0.02788392 0.10514477 0.43300906 0.6125769 0.23634331 0.5776673 0.31089327 0.38570085 0.04913259 0.46203816 0.38498747 0.3833514 -0.47821268 0.2326558 -0.33853036
need -0.19059363 0.4614602 -0.24726911 -0.14333762 0.21129128 -0.75532234 0.37513447 0.60122913 -0.32121694 -0.61271316 -0.6070539 -0.37961718 -0.06708567 0.09677145 0.31128463 -0.51197225 -0.08154865 -0.45152307 -0.013265879 -0.7709354 0.45906696 0.06269963 0.25267842 -0.22377679 -0.05247674 -0.07900577 -0.5188825 -0.44301328 -0.11845556 0.31840906 0.6514159 0.13344401 -0.04940761 -0.12881443 -0.009420808 0.8925987 0.067270264 0.16640148 -0.065191165 -0.53327197 -0.20400847 -0.54352194 -0.009526416 0.14379114 0.22078158 -0.3698519 -0.30949685 0.12851974 0.15652078 0.46255985 0.12840779 -0.22612567 0.2598659 -0.47740743 -0.13391681 0.2565378 0.3255867 -0.022878483 -0.2307737 0.46350858 0.27493164 0.16831589 0.0606813 0.09341876 -0.43657744 0.039010283 0.19602609 0.5656273 -0.08595718 0.4294796 -0.05216506 0.08110957 0.443189 0.0011557478 0.47379932 0.1389749 -0.11680941 0.038201615 -0.27656913 0.36516026 -0.027911492 -0.26131877 -0.10866887 0.2289193 0.33345056 -0.028484033 0.08405925 0.44575068 0.68822956 0.2876021 0.60705197 0.33702445 0.3897138 0.08257582 0.51000667 0.43970186 0.39648038 -0.49512243 0.22717993 -0.369504
antivirus -0.2302081 0.43302873 -0.29576722 -0.26090607 0.12670428 -0.7117261 0.29326883 0.48812512 -0.19354722 -0.54810554 -0.65028644 -0.3423646 -0.07231414 0.0695912 0.48439628 -0.48890126 -0.013713163 -0.41853845 -0.046436142 -0.4546264 0.42760962 -0.028269142 0.14207351 -0.14665546 0.12119125 -0.014171312 -0.50239855 -0.5218215 -0.100616075 0.25334886 0.7247312 0.11642238 0.02258603 -0.06935814 0.01877003 0.68870896 0.108738534 0.41169858 0.0070327753 -0.4428861 -0.17278075 -0.5420856 0.074122734 -0.059585344 0.16377227 -0.39074278 -0.28862336 0.23896874 0.10372395 0.36952603 0.043201216 -0.22466445 0.18550794 -0.37104887 -0.03238293 0.3212747 0.32567364 -0.024540573 -0.08973554 0.38139895 0.18740909 0.30609956 0.08686215 0.26056638 -0.07220264 0.1501293 0.31088603 0.49965277 0.0949717 0.38263512 0.0025144487 0.09976579 0.3845711 0.060269136 0.41787758 0.12514274 -0.185391 0.07504306 -0.1881971 0.29095015 0.1710863 -0.3878406 -0.008033936 0.18438278 0.43031347 -0.024758106 0.22209695 0.35984227 0.46333408 0.16209516 0.49136773 0.3583855 0.4425379 -0.07350777 0.2967855 0.3042965 0.38256925 -0.38310695 0.17379133 -0.28412646
internet -0.20167442 0.40733224 -0.25983736 -0.23397948 0.17269033 -0.7082361 0.38494408 0.5989877 -0.37664714 -0.63777864 -0.5886755 -0.38108492 -0.12513064 0.106850855 0.29561654 -0.465997 -0.089344665 -0.39703426 -0.028683683 -0.6665188 0.37530786 0.007749507 0.22695099 -0.20830555 0.008592962 -0.119258866 -0.43073684 -0.4741948 -0.07235662 0.20667195 0.6472962 0.10773117 -0.049543947 -0.09386124 0.02584346 0.80984145 0.04914499 0.27135628 0.00885776 -0.5974681 -0.10204995 -0.5109056 -0.039461497 0.0513974 0.19267417 -0.35661775 -0.3308009 0.1283337 0.14546378 0.41765583 0.12386309 -0.2381105 0.2492642 -0.42078236 -0.07764663 0.30156732 0.31343997 -0.024102543 -0.16409019 0.35724863 0.21075213 0.22339924 0.06601893 0.12856206 -0.30996543 0.059777264 0.2985538 0.5260308 -0.046086404 0.3612065 -0.0067789336 0.13985582 0.42985484 0.019683013 0.44885492 0.16848913 -0.14292137 -0.042580266 -0.2705192 0.33183977 0.028287636 -0.32053 -0.06104371 0.22830713 0.36744493 -0.01419038 0.15460324 0.3584566 0.58365995 0.26120842 0.52419716 0.35336202 0.49384022 -0.0041258954 0.4371059 0.43491465 0.42892954 -0.5131119 0.24181126 -0.31818616
requirement -0.1731329 0.49974662 -0.25508955 -0.06030116 0.21965119 -0.74569434 0.36003748 0.518551 -0.32699373 -0.6125706 -0.6465961 -0.42128944 -0.042637482 0.010180633 0.2880545 -0.5410965 0.0027301272 -0.44836468 -0.07700169 -0.76528275 0.49296388 0.045102503 0.2917053 -0.26583266 -0.024566693 -0.045083866 -0.583055 -0.41185996 -0.16265494 0.369495 0.701113 0.1309371 0.057625573 -0.16086091 -0.050032005 0.8504926 0.05798908 0.11396773 -0.08146971 -0.48861507 -0.19440058 -0.57651955 0.0715309 0.16096672 0.22422402 -0.4419017 -0.24622202 0.08853541 0.1606529 0.4351413 0.021498896 -0.20933676 0.25020579 -0.4299116 -0.13846734 0.22549368 0.33355448 -0.053495727 -0.24424292 0.5108881 0.26056233 0.20067184 -0.0065127043 0.07919 -0.40685952 -0.013648756 0.20554315 0.5384154 -0.05581339 0.39993972 -0.019750426 0.03447591 0.411888 0.01784797 0.4228245 0.11463681 -0.10925154 0.12655723 -0.24231812 0.41232213 0.0046137227 -0.22782592 -0.06420588 0.2349287 0.25019073 -0.085831575 0.06139672 0.46071994 0.6718528 0.25871235 0.62284875 0.3267462 0.2708326 0.097311676 0.53081816 0.3350147 0.3525254 -0.4654681 0.22307478 -0.24964291
protection -0.20550598 0.4023357 -0.26428446 -0.12658264 0.16608386 -0.7284957 0.3665304 0.554776 -0.37419555 -0.6011028 -0.5832031 -0.40729 -0.04495943 0.0613923 0.3443546 -0.49176854 -0.014655248 -0.3938269 -0.0778227 -0.6242645 0.40466106 -0.0096982485 0.1869698 -0.23878422 -0.016357416 -0.061914843 -0.5137149 -0.45812315 -0.16267505 0.2565721 0.6369044 0.116193 0.018182766 -0.15389729 0.0049536075 0.80923307 0.06792206 0.2261965 -0.031620625 -0.51345515 -0.12811388 -0.5130181 0.00760955 0.08889876 0.1720914 -0.38243988 -0.2628676 0.12105409 0.15411982 0.41222286 0.06844237 -0.25926802 0.26023957 -0.3920925 -0.080965556 0.29333338 0.3245995 -0.038244776 -0.17827798 0.42826188 0.20591234 0.19973415 0.03495568 0.089808576 -0.30353555 0.10329373 0.20414205 0.5555042 0.021193177 0.33122486 0.00505593 0.10865724 0.40475988 0.020013236 0.45985776 0.11805752 -0.093579195 0.028739132 -0.24133721 0.3045581 0.02545929 -0.25072584 -0.06265952 0.21803412 0.2677501 -0.024486884 0.13456865 0.35735732 0.5890312 0.22303864 0.58476055 0.34981933 0.38851166 0.046695642 0.39286706 0.37716135 0.38366285 -0.5190746 0.216346 -0.30241758
create -0.22731452 0.45108837 -0.24717134 -0.18561774 0.18963993 -0.7237757 0.35529703 0.56599087 -0.3296133 -0.64593977 -0.6365894 -0.38740084 -0.091543786 0.09168242 0.30237046 -0.512849 -0.05537948 -0.4325462 -0.03246806 -0.67871314 0.41158155 -0.009391448 0.22936662 -0.2006201 0.02829658 -0.08284682 -0.5001236 -0.46515125 -0.10039416 0.25495166 0.6697553 0.13749489 -0.061698698 -0.10760632 0.009470815 0.81787443 0.06263398 0.22899301 -0.025359098 -0.59378445 -0.1729089 -0.54129624 0.028772654 0.042100184 0.20664267 -0.42602915 -0.32145345 0.15294896 0.15912247 0.44636416 0.11231778 -0.23922779 0.22937192 -0.4403066 -0.10202928 0.2721953 0.32998285 -0.03919787 -0.19433606 0.3997662 0.24374044 0.24081326 0.07319668 0.14745645 -0.33744752 0.031169716 0.29853213 0.5369975 -0.04237798 0.42379686 0.00083022827 0.10921315 0.43086624 0.016458753 0.4658415 0.17695935 -0.16946656 0.028165486 -0.25737867 0.35584828 0.039086457 -0.30898136 -0.05230935 0.22911642 0.3675273 -0.047578588 0.12523326 0.4370734 0.6228293 0.28385976 0.5665923 0.35553145 0.44660932 0.014514685 0.4916401 0.41549212 0.419266 -0.49538088 0.22778727 -0.31343538
secure -0.16530035 0.3886922 -0.22525486 -0.12534411 0.16995339 -0.6306525 0.32617474 0.52375793 -0.33808416 -0.57006174 -0.50455177 -0.37171212 -0.023599248 0.06767622 0.23937766 -0.45130396 -0.028142028 -0.37584049 -0.055218194 -0.64457905 0.38229975 0.042013712 0.23072413 -0.22163124 -0.050859418 -0.07652991 -0.4339056 -0.34196186 -0.1283494 0.21624684 0.54853934 0.10970694 -0.009375859 -0.15879527 -0.017545842 0.78405625 0.06548871 0.13007005 -0.046050675 -0.45271787 -0.14923611 -0.40968856 -0.036880605 0.104287975 0.2056308 -0.30323222 -0.26303837 0.07451277 0.13841443 0.37963125 0.06837436 -0.17842187 0.23051625 -0.37583858 -0.07384136 0.24001518 0.2414743 0.013106597 -0.185706 0.41432217 0.18544811 0.13878901 0.066887036 0.06499098 -0.3838753 0.03316858 0.13289376 0.47682005 -0.03203023 0.33540094 -0.04550728 0.14236228 0.37722155 0.029963482 0.38348347 0.104448095 -0.071331546 -0.03820371 -0.2358134 0.3034285 -0.02004781 -0.2206648 -0.1056083 0.19432358 0.22590618 -0.05903457 0.078536205 0.3296939 0.5730623 0.2854682 0.49239954 0.27841353 0.35170448 0.06384774 0.42404875 0.35885704 0.2947708 -0.44961497 0.22680803 -0.3136091
data -0.17611225 0.43964502 -0.24843352 -0.12014649 0.19670932 -0.7177614 0.4001902 0.54612386 -0.3891318 -0.60071784 -0.5859349 -0.3967291 -0.07296319 0.050195776 0.2773705 -0.4899795 -0.033942692 -0.41152015 -0.0703809 -0.7254521 0.40831816 0.038233038 0.23899707 -0.2648778 -0.056239493 -0.06173425 -0.5008454 -0.42330453 -0.1348331 0.2700237 0.6349157 0.09999438 -0.020806173 -0.15919907 0.018652797 0.8671286 0.07404841 0.15775569 -0.06267938 -0.55162853 -0.1327426 -0.52727664 -0.02007771 0.1430838 0.19587669 -0.3785481 -0.2938531 0.124164015 0.1642489 0.41945451 0.08665755 -0.25848427 0.28764454 -0.402707 -0.14962092 0.2936381 0.31657252 -0.012232936 -0.23507442 0.4112393 0.21435547 0.1868432 0.009815891 0.079024635 -0.3902147 0.059113186 0.20661585 0.55168086 -0.033945933 0.374136 -0.028695267 0.091865204 0.41968423 0.002047668 0.43320093 0.111423664 -0.09704732 0.042621993 -0.24036352 0.34370366 -0.027007552 -0.24129534 -0.09472502 0.2134293 0.26418266 -0.043126475 0.08035554 0.39890766 0.64749974 0.29389602 0.5740829 0.35410482 0.35006872 0.051871736 0.47928688 0.38865557 0.37198675 -0.5340498 0.2613379 -0.3000053
cause -0.21500653 0.4469264 -0.23875757 -0.23084001 0.19125615 -0.7319328 0.3731689 0.5892282 -0.353946 -0.63581324 -0.63960916 -0.37493196 -0.12259924 0.08186153 0.32275984 -0.5119296 -0.07521843 -0.42539117 -0.023125108 -0.71111697 0.43025398 0.0035879645 0.23979834 -0.21244341 -0.0034018736 -0.11787437 -0.48822722 -0.46954876 -0.092546456 0.27258864 0.6834929 0.11349874 -0.06386704 -0.13035056 -0.0070035644 0.8296695 0.05466348 0.24276088 -0.019909514 -0.58223253 -0.16612364 -0.5402924 0.00065826834 0.056204148 0.22761135 -0.4152029 -0.31969956 0.15843245 0.15584265 0.45270896 0.14985897 -0.26211938 0.2595712 -0.45509675 -0.09907376 0.29845056 0.33405617 -0.038527023 -0.19500645 0.38199118 0.21716197 0.24308003 0.076562606 0.13335526 -0.31893754 0.04333382 0.32670152 0.5488898 -0.076158196 0.41173747 -0.01652874 0.11201564 0.44259405 0.0009879408 0.4660233 0.18464373 -0.18368642 0.041856024 -0.27448383 0.34851107 0.010141025 -0.3404179 -0.08215169 0.26477402 0.3775908 -0.017369077 0.12388497 0.42189044 0.6440982 0.30440503 0.58636236 0.36269757 0.47548953 -0.00869793 0.50687236 0.40850523 0.44172794 -0.51988524 0.2522665 -0.3529502
analysis -0.19218665 0.496498 -0.24139185 -0.08331381 0.23150638 -0.76918584 0.41173172 0.575927 -0.38306278 -0.64896625 -0.69569075 -0.4236951 -0.060701996 0.03639746 0.2741428 -0.5551564 -0.03282715 -0.45631057 -0.0883525 -0.80953443 0.48626313 0.031060055 0.27982724 -0.27082148 -0.041426197 -0.0890406 -0.58202225 -0.39504927 -0.16036585 0.32770035 0.6754473 0.15710379 -0.024568094 -0.19000612 -0.06753492 0.8861915 0.080387734 0.14019468 -0.06305671 -0.5326378 -0.19654894 -0.5508872 0.029891761 0.16184856 0.24983089 -0.43485698 -0.27844927 0.12338443 0.17456155 0.4727754 0.0933288 -0.22611299 0.2814143 -0.46835488 -0.14662175 0.26199594 0.31829193 -0.024677975 -0.27128476 0.5025799 0.26212034 0.1780138 0.04245739 0.077565424 -0.43021855 -0.0057027065 0.2244236 0.5668154 -0.068405546 0.42129657 -0.019415375 0.10189568 0.46652392 0.00407 0.4757691 0.13085844 -0.12114082 0.07464749 -0.26019573 0.37805474 -0.033175185 -0.24327052 -0.10491052 0.26319286 0.3004447 -0.09564405 0.097741224 0.46737263 0.70961684 0.32468748 0.6724036 0.34578142 0.35043648 0.06359881 0.57686204 0.4206667 0.3678231 -0.5273725 0.26760006 -0.31568238
privilege -0.15591562 0.3971109 -0.23499778 -0.19437623 0.17937589 -0.72285587 0.33999518 0.6082486 -0.41238013 -0.64839774 -0.57566404 -0.40235505 -0.119467534 0.08746504 0.29260656 -0.4761797 -0.07979893 -0.40620536 0.03927156 -0.7389159 0.34685817 0.044066597 0.17003632 -0.20563483 -0.008705676 -0.17995031 -0.44330925 -0.52522415 -0.06094663 0.21377951 0.65136606 0.14863065 -0.02482969 -0.11714774 0.05603957 0.8547994 0.04657219 0.1992977 0.028762087 -0.63323706 -0.11768845 -0.57188815 -0.071846455 0.09500434 0.19797012 -0.3472202 -0.34890938 0.12755671 0.17375435 0.45192102 0.13392207 -0.23050556 0.19625854 -0.45345014 -0.013894122 0.29896438 0.30402255 -0.0068620886 -0.11616879 0.40728253 0.13197814 0.22619529 0.10733929 0.0628332 -0.3979647 0.07196469 0.22196767 0.5026077 -0.10070995 0.3615988 -0.0038455066 0.19173497 0.46141204 0.05762386 0.5135346 0.095930055 -0.10786481 -0.11677655 -0.3497408 0.35875836 -0.0072289123 -0.29501593 -0.07370908 0.23812386 0.33578062 -0.03236482 0.061909202 0.412177 0.6839703 0.30642942 0.57583714 0.3461943 0.4941064 0.08291718 0.48089078 0.4567856 0.4411175 -0.56986105 0.22097912 -0.39761811
practice -0.17046843 0.46500403 -0.22617398 -0.06832903 0.22602685 -0.73583955 0.39059782 0.58531255 -0.3351705 -0.6158282 -0.6706881 -0.41431907 -0.07249968 0.022386631 0.28404737 -0.5185518 -0.020492576 -0.45743364 -0.07028339 -0.765683 0.47658664 0.07113308 0.32537127 -0.2598232 -0.05908268 -0.065491356 -0.5439427 -0.37479606 -0.15244226 0.33826047 0.6855662 0.119448476 0.031146815 -0.16517183 -0.06307388 0.89783436 0.068196476 0.09124824 -0.064642794 -0.51574516 -0.20494045 -0.5292342 -0.0025979488 0.1752772 0.2385184 -0.42416763 -0.24785544 0.07230912 0.17321603 0.43374446 0.08089791 -0.19029479 0.26475978 -0.44332054 -0.15762281 0.23663473 0.33662996 -0.024171647 -0.2423022 0.49664548 0.25753734 0.17983669 0.0054394114 0.08131728 -0.44922125 0.0055683483 0.1478004 0.5454673 -0.050636962 0.39249986 -0.046796292 0.056398153 0.421946 0.016115824 0.42877942 0.11998167 -0.10742671 0.049519297 -0.26554397 0.38126275 -0.028280497 -0.225304 -0.07895931 0.24951631 0.285495 -0.060226306 0.0696746 0.4473924 0.66028666 0.2966993 0.660587 0.31768486 0.34856498 0.04836262 0.59453034 0.40075126 0.35840687 -0.51055413 0.2631268 -0.33473015
identify -0.19151922 0.43319958 -0.20901993 -0.10433253 0.20602052 -0.66198784 0.3872329 0.5466201 -0.34568334 -0.588115 -0.5895339 -0.36889836 -0.08555046 0.058669306 0.23596343 -0.49721912 -0.023557851 -0.3883482 -0.063167475 -0.7028999 0.42399356 -0.0011940736 0.23870885 -0.22660549 -0.003645126 -0.10824842 -0.46295738 -0.39417577 -0.13754658 0.24588762 0.59590435 0.12138695 -0.019979384 -0.15473796 -0.021491952 0.7731097 0.076260656 0.1465769 -0.045801707 -0.52789795 -0.14046116 -0.49027964 -0.003391483 0.091200486 0.20626336 -0.40255037 -0.2563267 0.12759686 0.16679858 0.40871504 0.10771791 -0.21054721 0.22571059 -0.38824913 -0.10509768 0.2497522 0.29044816 -0.039039955 -0.22309943 0.39014524 0.22335139 0.17006151 0.07631368 0.0708271 -0.3712644 0.0119586475 0.24265493 0.5002851 -0.075435616 0.37022996 -0.010457092 0.11763536 0.40294066 -0.011885131 0.429155 0.14940025 -0.11828031 0.028033055 -0.27144018 0.31867507 -0.033963054 -0.23757698 -0.08564835 0.23924841 0.27333087 -0.041309286 0.12180916 0.37359595 0.6080425 0.2967595 0.57785976 0.31622875 0.38760498 0.029431088 0.47761866 0.41614926 0.36996138 -0.47180262 0.25242046 -0.3137964
result -0.22201282 0.47958177 -0.26318136 -0.1964917 0.20700282 -0.78449714 0.3860014 0.6022319 -0.36939594 -0.67384714 -0.6768344 -0.39158395 -0.10763623 0.06720596 0.3205774 -0.54395914 -0.06477006 -0.44477037 -0.024939936 -0.7552652 0.45535567 0.012225561 0.2656094 -0.21250919 0.011289856 -0.109518886 -0.53134173 -0.513997 -0.08662614 0.30467963 0.7228203 0.14947437 -0.0542903 -0.12453431 -0.003459058 0.89306974 0.057762217 0.22857305 -0.041996468 -0.6376675 -0.16853179 -0.5845048 0.009535211 0.060172267 0.22516917 -0.44720584 -0.34173515 0.15254575 0.17286675 0.4602131 0.12891738 -0.2724724 0.24575368 -0.4689988 -0.12261241 0.28829676 0.342193 -0.048430398 -0.20707369 0.45325273 0.2511295 0.25832263 0.062082976 0.12342986 -0.35937637 0.025441037 0.31912208 0.5602496 -0.07500134 0.43599913 -0.024194054 0.109866835 0.44963077 0.0109167695 0.47210187 0.189709 -0.17612395 0.051808953 -0.28985062 0.37889913 0.026315631 -0.3394185 -0.07858451 0.27391326 0.36583498 -0.03359813 0.12268352 0.46020347 0.68305236 0.30843866 0.6285757 0.36646888 0.44968346 0.027541462 0.55389494 0.42153975 0.47250584 -0.53882796 0.25515407 -0.34480456
bug -0.19063802 0.39198092 -0.21364631 -0.2048344 0.17519836 -0.6775155 0.30635366 0.5460537 -0.24833182 -0.5749624 -0.60837096 -0.3174147 -0.1161703 0.075413026 0.28569496 -0.46466875 -0.06529083 -0.4059362 -0.030777965 -0.60546887 0.40647757 0.026268397 0.25071663 -0.17115013 0.020955695 -0.07735116 -0.4902335 -0.41172037 -0.07690059 0.28148842 0.6129094 0.11821761 -0.032492284 -0.13491069 -0.05574074 0.76770884 0.049316417 0.21243758 -0.049868803 -0.4506255 -0.17816207 -0.46583956 0.020419631 0.040927537 0.221213 -0.3816023 -0.27654532 0.13288088 0.15326408 0.39773354 0.105354376 -0.19104514 0.21805882 -0.40605 -0.081864096 0.2581996 0.3241755 -0.029853154 -0.1542193 0.3831607 0.19245802 0.19828434 0.06657368 0.13100868 -0.29399812 0.02897131 0.25752866 0.4428226 -0.035230365 0.37663853 -0.034128707 0.07665023 0.38499406 0.029975777 0.3993467 0.14863457 -0.1421265 0.034605987 -0.2607249 0.31982142 0.019603549 -0.28841037 -0.07556604 0.22027044 0.33373058 -0.041083563 0.10565251 0.39714724 0.54928595 0.29397124 0.54000455 0.28892538 0.38025934 0.004643237 0.47400215 0.3591714 0.3643381 -0.41965824 0.19798549 -0.3380642
windows -0.2706189 0.45322967 -0.30122864 -0.29371494 0.15899079 -0.80027044 0.37344855 0.6493456 -0.34759992 -0.6714609 -0.6209323 -0.4010582 -0.11221839 0.13250954 0.39813003 -0.5264789 -0.053356342 -0.45081162 -0.025998108 -0.6283119 0.41812426 -0.07552526 0.15627214 -0.21513502 0.07690139 -0.12430462 -0.48515958 -0.5336697 -0.047255836 0.1733764 0.75159055 0.1114442 -0.05070944 -0.06183992 0.07136436 0.83431405 0.07840425 0.3778025 0.05834337 -0.6381963 -0.134454 -0.5980037 -0.014125446 -0.06200959 0.17354907 -0.40847772 -0.33710656 0.18152189 0.16478536 0.45374206 0.09244331 -0.2509117 0.21339631 -0.4442321 0.0033093877 0.37149787 0.3776715 0.049804177 -0.100810744 0.43503624 0.20746951 0.23866668 0.09742487 0.13790496 -0.27309656 0.13161816 0.3234913 0.5372579 0.0209613 0.42415273 0.0057778843 0.13096789 0.4975771 0.08409386 0.49190173 0.1246425 -0.19651458 -0.07768394 -0.3108117 0.36756954 0.07988976 -0.39555255 -0.06073234 0.21340719 0.44973874 -0.0155172 0.15957366 0.35866383 0.648244 0.25783893 0.5433703 0.34534192 0.5979372 -0.031691182 0.42254588 0.4131366 0.481111 -0.52794635 0.20656648 -0.34340945
server -0.20603502 0.43396792 -0.26532128 -0.2562191 0.16018371 -0.7173471 0.34936032 0.62774724 -0.35339767 -0.66865355 -0.6307789 -0.36245415 -0.16582273 0.12595887 0.33471128 -0.47359687 -0.095877886 -0.43080458 -0.0043277354 -0.6796145 0.3739871 0.011962069 0.22057588 -0.18538429 0.027101804 -0.14098361 -0.4554229 -0.50608367 -0.048566096 0.23191614 0.6628637 0.08241396 -0.06890574 -0.070430815 -0.0014205631 0.8306365 0.032792732 0.29576886 0.021876378 -0.6131239 -0.17395319 -0.52166975 -0.035045248 0.009041308 0.19410677 -0.34361014 -0.37065384 0.16948497 0.13277268 0.44883564 0.12680979 -0.21518868 0.23048149 -0.47574735 -0.04089244 0.31884176 0.32056656 -0.018426973 -0.14796181 0.36429796 0.15179756 0.23114076 0.09254312 0.18786478 -0.33026186 0.03906217 0.2935852 0.5228909 -0.0541529 0.43651193 -0.02409889 0.1239267 0.41234624 0.031758193 0.45639208 0.13586982 -0.17148778 -0.049666382 -0.27360356 0.35992283 0.025843875 -0.37145695 -0.06062768 0.268378 0.41780707 -0.015123784 0.15737784 0.3975356 0.6228368 0.26493442 0.49718025 0.3315048 0.5452755 0.015718488 0.46210438 0.43732095 0.441028 -0.4888712 0.2561234 -0.37066117
different -0.18667482 0.4404625 -0.23077987 -0.14146239 0.2134245 -0.6855252 0.37321016 0.53253776 -0.32859504 -0.60274744 -0.58051693 -0.37170103 -0.07483504 0.08183312 0.2532685 -0.46361443 -0.060346782 -0.38694587 -0.041661214 -0.7007342 0.38829547 -0.005062748 0.22754513 -0.2173921 -0.022785664 -0.101759896 -0.45569223 -0.41783303 -0.10530963 0.25260112 0.624442 0.13395636 -0.055240173 -0.12821859 -0.015985759 0.782979 0.06528477 0.17472179 -0.03795313 -0.53611135 -0.14262868 -0.50422996 0.004348855 0.09746038 0.19866157 -0.3800611 -0.27542502 0.11152649 0.15484774 0.44120842 0.097616434 -0.22686674 0.2323521 -0.39267612 -0.101869315 0.24962369 0.29087818 -0.023731364 -0.20692976 0.4021493 0.252631 0.17640133 0.06686606 0.093021736 -0.35535264 0.00036003045 0.23851013 0.48176634 -0.055840854 0.39622003 -0.018645933 0.09585414 0.4112808 -0.009281651 0.43191382 0.15384309 -0.14130197 0.022378974 -0.25676286 0.34970555 0.004864787 -0.26074043 -0.081537195 0.20894076 0.28548393 -0.050728764 0.06643034 0.4234217 0.623363 0.2919344 0.56836355 0.31491396 0.37684038 0.04861425 0.49950403 0.38886535 0.37571976 -0.4796038 0.21392448 -0.30229846
find -0.20485649 0.43656334 -0.2450321 -0.22357588 0.19139111 -0.69872427 0.32637274 0.57345235 -0.27402994 -0.6145223 -0.60320485 -0.3309928 -0.105493754 0.12290032 0.26984572 -0.45866692 -0.08384881 -0.40132317 -0.03282785 -0.66252214 0.38440552 0.025264092 0.2285149 -0.18144293 0.012317536 -0.088736504 -0.4679805 -0.4559774 -0.07298843 0.27543676 0.62418574 0.10312768 -0.048391353 -0.119390674 -0.03575679 0.80700403 0.032421775 0.2431348 -0.024113946 -0.5289216 -0.17236553 -0.49075946 -0.0014281495 0.022127412 0.21764722 -0.36466613 -0.29474887 0.15007982 0.1508528 0.4082796 0.13928983 -0.21683316 0.22873552 -0.42042372 -0.08290955 0.26240182 0.29073715 -0.020828437 -0.16796187 0.3871391 0.24175888 0.1954921 0.076568335 0.15541169 -0.30078682 0.018981658 0.28940222 0.46322757 -0.05281442 0.40066707 -0.015187084 0.09519556 0.4162465 -0.0039255177 0.4163348 0.1759737 -0.17745256 0.0021915915 -0.25068635 0.32910278 0.012733493 -0.29061422 -0.08274684 0.21382949 0.36378682 -0.052967075 0.1245183 0.42101777 0.5843673 0.3024093 0.53241175 0.3201271 0.43417758 0.025556302 0.50265235 0.40011638 0.40593418 -0.46100506 0.22803184 -0.34935677
common -0.21330984 0.45912698 -0.2575054 -0.19401766 0.19217709 -0.73492515 0.37992963 0.59125876 -0.34332487 -0.63690853 -0.6519905 -0.38728186 -0.11075738 0.09447252 0.3123927 -0.5043407 -0.08050839 -0.42029583 -0.03548002 -0.70430964 0.42393422 0.016258217 0.2559112 -0.22078094 -0.0023391766 -0.11451038 -0.4766838 -0.4771359 -0.094188094 0.25144586 0.6754428 0.10824449 -0.03119051 -0.121523574 -0.012257028 0.84154767 0.047759086 0.24008338 -0.0075795725 -0.5724376 -0.15086326 -0.5415873 0.00029328238 0.036586046 0.19966263 -0.40339467 -0.31984162 0.16168776 0.15321556 0.43614024 0.13504055 -0.23874085 0.24817339 -0.4523226 -0.07722193 0.30168468 0.3327501 -0.016991874 -0.196478 0.40291676 0.23150884 0.2166814 0.07537877 0.15300371 -0.32467932 0.032066688 0.28704962 0.5364281 -0.05520123 0.40235236 -0.01443883 0.11335093 0.43182555 0.023021149 0.48212343 0.17510669 -0.17149971 0.008634639 -0.27615854 0.35715854 0.0064133224 -0.33208498 -0.075768955 0.25218022 0.36289197 -0.042186845 0.14851253 0.4063623 0.628128 0.28132007 0.5844079 0.33947206 0.4778347 0.0018956403 0.4740676 0.43267065 0.43244112 -0.50168365 0.25519067 -0.35316014
business -0.19860916 0.49005678 -0.22790428 -0.08861794 0.2405655 -0.7514857 0.42461666 0.5986895 -0.41288805 -0.65036863 -0.67725265 -0.4456987 -0.06755054 0.0513117 0.26713172 -0.5514721 -0.03704811 -0.4459574 -0.05122686 -0.80025285 0.4777831 0.005391087 0.305353 -0.27598456 -0.047898736 -0.078723915 -0.55740905 -0.42385978 -0.16129172 0.3201141 0.6913315 0.14947054 -0.02557904 -0.14680038 -0.005002121 0.9016858 0.07895172 0.11188809 -0.081197634 -0.5815759 -0.1707483 -0.55848324 -0.007104559 0.15292868 0.2134888 -0.46327522 -0.26839092 0.11259768 0.19385119 0.4785895 0.094281554 -0.27032104 0.3071228 -0.44783667 -0.1565184 0.27365938 0.33918774 -0.059244897 -0.2706604 0.4743654 0.27932417 0.19007125 0.026366673 0.049704727 -0.46698645 -0.010843055 0.22539163 0.5962054 -0.081842124 0.42942232 0.0030402157 0.08468283 0.4541743 -0.036428694 0.45364884 0.16186462 -0.097491294 0.06951981 -0.26427978 0.38224766 -0.035575494 -0.24152695 -0.101992495 0.26616204 0.26824495 -0.061840206 0.080329575 0.46301606 0.7116988 0.31689054 0.6728188 0.36319524 0.36754477 0.07232194 0.57807535 0.41830558 0.4042502 -0.5667495 0.27198198 -0.3030349
main -0.2898134 0.5035225 -0.30508524 -0.13217178 0.18956959 -0.7595821 0.43932673 0.5649282 -0.07852644 -0.4858033 -0.5434363 -0.33134192 -0.013548796 0.05774684 0.45464328 -0.59113944 -0.04743935 -0.46419597 0.00055210723 -0.76657045 0.62581146 0.19497539 0.23253453 -0.1674729 -0.10326445 0.124374464 -0.68367153 -0.47091314 -0.07383495 0.45432672 0.5304357 0.14423189 -0.041318625 -0.124887906 -0.0054402696 0.84522104 0.13462941 0.13781963 -0.05667145 -0.33123213 -0.34895113 -0.5431431 0.02602106 0.19611372 0.1637417 -0.293789 -0.26130432 0.19375664 0.17267036 0.52836174 0.077453904 -0.16574971 0.35666588 -0.50973153 -0.21977101 0.25491607 0.4032256 0.07257265 -0.24675223 0.58207357 0.35755637 0.15436576 0.03202564 0.09199853 -0.48517448 0.11223437 0.045007784 0.6886403 -0.076167524 0.41240528 -0.16114019 0.045693282 0.46854293 0.05279705 0.41191736 0.091720566 -0.15052488 0.29831672 -0.3387292 0.40557712 -0.0018963804 -0.16208263 -0.015822206 0.10580149 0.35973984 0.017279392 0.039788254 0.38480812 0.6161898 0.16974254 0.6214579 0.29575324 0.3059028 0.155818 0.4999967 0.41819677 0.4408457 -0.3646369 0.19443893 -0.47375998
key -0.21211396 0.4862279 -0.25576597 -0.21942112 0.24181613 -0.75722754 0.41645008 0.61638147 -0.3949764 -0.7231746 -0.6699797 -0.40893456 -0.064409085 0.119332545 0.30085278 -0.5293412 -0.0860806 -0.44993034 -0.0039068228 -0.7797762 0.45829034 -0.025818877 0.23341256 -0.21099375 -0.0011353168 -0.12664853 -0.50172573 -0.5057219 -0.12218053 0.264454 0.6898926 0.165981 -0.10311762 -0.13963936 0.046101674 0.907298 0.07653776 0.2548569 -0.031046145 -0.6626275 -0.18353021 -0.5761881 0.009135609 0.09219484 0.25916243 -0.42412674 -0.37275273 0.15708224 0.17695828 0.494846 0.13059998 -0.25293455 0.24514636 -0.44570708 -0.12860963 0.27120724 0.3333097 -0.037456147 -0.23148441 0.44756994 0.24008718 0.25639492 0.07747588 0.13181847 -0.4237273 0.02571034 0.30683947 0.6102854 -0.061595093 0.466026 -0.03356264 0.15691608 0.4661987 -0.0070000575 0.49238643 0.17374648 -0.1491571 -0.017059343 -0.2811445 0.39814425 0.048239507 -0.3401841 -0.093834706 0.23957352 0.3940541 -0.03574228 0.103603624 0.50225204 0.7273985 0.33526847 0.56651384 0.39737597 0.45264903 0.05793465 0.5373395 0.4488548 0.45561627 -0.57946235 0.29003447 -0.3409116
cyber -0.1920287 0.4432314 -0.18080996 -0.08408147 0.25516146 -0.65214515 0.4459969 0.514385 -0.37162378 -0.5687232 -0.5637781 -0.37270066 -0.084529065 0.009769988 0.18694039 -0.50386375 -0.052660305 -0.3492898 -0.108951025 -0.7307047 0.39620623 0.026562603 0.27847803 -0.29276875 -0.0733782 -0.10165201 -0.4804105 -0.34147388 -0.17987089 0.22804144 0.57477826 0.09878162 -0.032678 -0.21080557 -0.02423371 0.78634787 0.086569086 0.040195774 -0.060832545 -0.55614376 -0.079056874 -0.44484687 -0.028506612 0.16256995 0.18994975 -0.4778969 -0.2358936 0.089770354 0.20660609 0.3873302 0.11987641 -0.27358088 0.31940696 -0.36039096 -0.21165928 0.23730588 0.27428272 -0.033888165 -0.281501 0.3955282 0.30962986 0.13170847 0.016474739 -0.047938183 -0.4275678 -0.055462588 0.20736195 0.5363781 -0.09701258 0.33462936 0.0075406227 0.071189046 0.37798962 -0.08391505 0.40786314 0.18092829 -0.05852383 0.07503837 -0.25387874 0.30411097 -0.09364231 -0.14142402 -0.1080429 0.21595879 0.17185734 -0.04064821 0.07095257 0.38545078 0.6302933 0.30263925 0.6284261 0.35042116 0.27384192 -0.017362647 0.5308156 0.42860386 0.35328642 -0.48552674 0.3043055 -0.24483094
quality -0.18986328 0.5434382 -0.24646297 -0.085334614 0.24844229 -0.87459683 0.40611094 0.6196137 -0.35642043 -0.6828952 -0.7758827 -0.4910302 -0.037281074 0.048560243 0.37260944 -0.61755985 -0.016723998 -0.53141814 -0.07873326 -0.8550852 0.5853226 0.057806157 0.34080043 -0.2686599 -0.023635088 -0.0388848 -0.6445556 -0.44180468 -0.19380182 0.39607787 0.78377086 0.17459609 0.015837038 -0.1871202 -0.050210785 0.97006685 0.11990951 0.12712996 -0.10565739 -0.5277032 -0.253192 -0.63829756 0.013517108 0.1657539 0.26807687 -0.50531304 -0.31063303 0.12055257 0.18905644 0.48894 0.066346556 -0.24066466 0.3009357 -0.5029408 -0.18037283 0.26715767 0.34875998 -0.051478736 -0.26742482 0.5594004 0.29067826 0.19557051 0.02541001 0.117129065 -0.47429338 0.04624772 0.19193003 0.62754065 -0.053032104 0.48336676 -0.056041155 0.0804147 0.48917726 -0.004354462 0.48744732 0.14308667 -0.1194323 0.09640303 -0.25245342 0.44135022 -0.018032057 -0.29502028 -0.082419954 0.2418949 0.32092884 -0.077283405 0.07672172 0.48701274 0.76503694 0.2877395 0.714343 0.38071176 0.3797103 0.05765392 0.59884626 0.40233102 0.38629198 -0.52485406 0.2599128 -0.36804807
product -0.20597251 0.52059555 -0.2664045 -0.1476842 0.22745265 -0.8135107 0.39406028 0.6097279 -0.33937043 -0.6666629 -0.71998996 -0.4106978 -0.058206152 0.039437085 0.37098584 -0.57556164 -0.043492395 -0.4815497 -0.06398487 -0.74970746 0.51333827 0.026644383 0.27065998 -0.2503965 0.014923907 -0.04845045 -0.5826768 -0.47522447 -0.1321038 0.3144136 0.75969106 0.15798186 0.010079859 -0.12990358 -0.013606202 0.91164595 0.07522342 0.21033184 -0.061111562 -0.58355975 -0.19093321 -0.5933887 0.04386819 0.080262475 0.2356028 -0.48537657 -0.32592863 0.15373708 0.15856792 0.45812836 0.07344596 -0.24437428 0.26504353 -0.4784306 -0.12541021 0.28301066 0.34526643 -0.024935374 -0.21565023 0.48166868 0.27915895 0.24793829 0.04426344 0.1427245 -0.35555172 0.049630884 0.27618432 0.5827114 -0.025322577 0.44007805 -0.032474164 0.076296076 0.45432287 0.008180534 0.4778047 0.1512932 -0.15112945 0.07367114 -0.25957406 0.40771407 0.054608393 -0.30836764 -0.0713358 0.25271392 0.3742016 -0.057028335 0.13787769 0.46822816 0.6829477 0.26611078 0.64022875 0.38665426 0.40312493 0.017507479 0.5536657 0.3965976 0.4116238 -0.5166812 0.26143903 -0.3287641
function -0.2016238 0.458076 -0.25084904 -0.1796326 0.19652496 -0.77165604 0.37527308 0.5961963 -0.35166293 -0.65323013 -0.64127684 -0.4095977 -0.08078769 0.071380705 0.29373783 -0.5214322 -0.058526184 -0.45479754 -0.017384477 -0.74368185 0.43901694 0.010680848 0.23952992 -0.23904532 -0.005879743 -0.10882157 -0.5392747 -0.479739 -0.10014461 0.2717565 0.70436615 0.14766426 -0.035681274 -0.11714428 0.0066014053 0.86688656 0.07117734 0.21496128 -0.02265461 -0.6033953 -0.17164904 -0.58492327 0.0013876237 0.09625703 0.21903142 -0.40928882 -0.31675747 0.14672557 0.17396796 0.46171767 0.10254898 -0.2694085 0.24710174 -0.46583 -0.08865842 0.29396072 0.34980553 -0.042072445 -0.20467529 0.45996562 0.22984211 0.22022903 0.06930754 0.11466991 -0.37936985 0.028400043 0.2614242 0.5505185 -0.04930596 0.4264067 -0.018090907 0.103332676 0.45005506 0.021094069 0.47844633 0.14102471 -0.14116228 0.0025881818 -0.29411915 0.3767288 0.009480896 -0.29703358 -0.08205381 0.27097556 0.35813183 -0.053357642 0.10654858 0.45782685 0.68793213 0.29628354 0.61350864 0.35435373 0.45446476 0.05691456 0.53063184 0.41825858 0.42572013 -0.5400123 0.24737863 -0.34419912
